2708 64
1358 0.1669726 0.12638196 -0.0835236 0.0384423 -0.013002939 -0.37199768 0.17150801 0.2520611 -0.04411154 0.015101429 -0.078457594 0.02624511 -0.4365765 -0.13077497 -0.1766592 0.15511326 0.107675366 0.15068619 0.3584779 -0.037521306 0.534312 -0.025922367 0.14188956 -0.007385251 -0.46998253 -0.12309297 0.2551431 0.13828003 -0.05922796 -0.4442066 0.2109523 0.30610347 0.19885619 -0.270832 -0.24720973 -0.31718725 0.81448305 -0.309763 -0.09014728 -0.29210827 -0.18973938 0.19378492 -0.13170047 0.3964719 -0.19397695 -0.49197373 -0.38724536 0.1093668 -0.06464322 -0.062010076 -0.2827584 0.17551942 0.068171665 0.50053996 0.38749474 -0.26514757 0.32630673 0.11765579 -0.30335033 0.22636539 -0.49195912 -0.17967941 0.19702892 -0.3084292
1701 0.055107377 0.018099938 -0.4554211 -0.27041435 0.51545554 -0.18243827 0.14435235 -0.15036649 -0.10496564 0.009732465 0.028006926 -0.09933997 -0.24281672 -0.33811828 -0.32009444 -0.04253821 -0.31150708 0.75226545 -0.08405137 0.68037117 0.48782098 0.3716562 0.39016294 -0.23150507 0.093011044 0.21033293 -0.030751234 0.28998786 -0.67570806 -0.38543767 -0.15708452 -0.025137613 0.65585923 0.20546576 -0.25589064 0.035561766 -0.012142629 0.34957105 -0.18355632 -0.5322396 0.053630933 0.14030515 -0.43050823 -0.04742434 0.23472685 -0.04793254 0.822346 -0.7459151 -0.17645732 -0.051516496 0.44503924 0.06289959 0.7212385 0.31398264 0.31085494 0.37718767 0.11227636 -0.14685397 -0.26461893 0.21769306 -0.28304264 -0.5217461 -0.26850024 -0.42264655
306 0.44080767 0.13600913 0.24989745 -0.2231083 0.012178529 -0.673277 -0.6472797 -0.031886477 -0.08178796 0.32516965 0.36490196 -0.081800774 0.31949255 -0.2755479 0.032085717 0.17749421 -0.10140419 0.28625926 -0.18212597 -0.1071003 0.505789 0.173594 0.52169275 -0.50627863 0.35268912 0.587918 -0.032716732 0.5910097 -0.20511155 -0.36281344 -0.2725812 0.6706601 0.19712812 0.23535842 -0.5022754 -0.1387246 -0.3869509 -0.09811841 -0.15743989 -0.22550139 0.19728823 0.2414217 0.1758618 0.59642816 0.17096703 -0.043018505 0.00021298688 -0.1981637 -0.53578573 0.36533308 0.27344653 0.13003635 -0.2866089 -0.25114894 0.6164409 -0.17397518 0.14314999 0.19747268 -0.34334534 -0.106527776 -0.47257993 0.0047621913 0.08536197 0.43597078
1986 -0.21282755 -0.37747297 -0.147109 -0.28819156 0.33801717 0.034039196 -0.21651083 -0.26013258 -0.09984684 0.16638881 0.077630065 -0.20079955 -0.024069512 -0.28806522 0.10754184 -0.10139061 -0.27850312 0.50941336 0.21262579 0.104966246 0.4479469 -0.13751853 0.34676975 -0.32694033 -0.1814646 0.15885232 -0.030595643 0.28953984 -0.7843521 -0.23629032 0.43335092 0.15056404 0.40165463 -0.32773274 0.09375713 -0.24472362 -0.60041773 0.3045064 0.10681335 -0.5020234 0.027291877 0.1974515 0.015056542 -0.112124525 -0.46056262 -0.39955664 0.39359826 -0.07998102 -0.32268688 0.2865608 0.17392495 0.64332044 0.4696799 0.6918001 0.08731709 -0.70417976 0.006243478 -0.26685104 0.13292094 -0.13001601 -0.21118475 -0.035508562 -0.5071249 -0.18678483
1810 -0.21103615 -0.09666114 -0.77105534 -0.19118759 -0.0929428 0.055832252 -0.22604477 0.07273913 -0.72838265 0.10791609 -0.0017401029 0.32480448 -0.24995713 0.12713277 -0.33684078 -0.039908074 -0.06498792 0.3566685 -0.24238278 0.6377556 0.72770613 0.15851161 0.45259786 -0.60199046 0.36481857 0.48542702 -0.22374927 0.5288024 -0.4700438 -0.5728244 0.6343386 0.21599585 -0.22619724 0.22691849 -0.17845197 0.4357432 -0.12839417 -0.02481952 0.21138485 -0.19338667 0.17351714 0.16754678 -0.23260748 -0.5242967 0.08857865 0.25237668 0.043261576 0.035479747 -0.15136907 -0.40223187 0.2788683 0.22920193 0.15235794 -0.23166738 0.8040392 -0.27215263 0.0011140971 -0.7281624 0.4688667 -0.55005836 -0.57349175 -0.34138328 0.61931306 -0.26124805
2034 0.19203693 -0.092249 -0.041107774 -0.3173651 0.14862636 -0.21679153 0.15380466 -0.6865214 -0.11387728 1.0211817 0.06862438 0.11727444 -0.16529766 0.048532665 -0.50600225 -0.43404016 -0.27901778 -0.06519265 -0.2730429 0.52865213 1.1628835 0.7683388 0.23926482 -0.34695435 0.20397216 0.4569101 -0.27195126 0.37066096 -0.12715997 0.12893856 0.0075165234 -0.04161586 -0.24757873 -0.05908443 0.080621116 -0.38713393 -0.1577389 0.58339226 0.32044917 0.4752697 -0.17367904 0.08540046 0.15038468 -0.14856447 0.3829122 -0.111325316 0.46162438 0.5536502 0.13397327 -0.4583214 -0.014376279 0.35878697 0.21082777 0.28868386 -0.03421085 -0.0537563 -0.039399706 0.13653786 -0.17891103 0.08606398 -0.02315867 -0.6873678 0.40906903 0.1479679
1623 0.98246586 -0.0027288804 -0.21517895 -0.46049988 -0.13957888 -0.55596024 -0.6919216 -0.07143399 -0.16302355 0.3148268 0.68260896 -0.54817855 -0.15462005 0.11409552 -0.19620624 0.21778789 0.24716707 0.19353284 -0.34960064 -0.038839117 0.30959502 0.47866404 0.3042048 0.034265988 0.06872681 0.6663838 -0.30174956 0.6252017 -0.06760507 -0.7287018 -0.021035936 0.5163858 0.104865596 0.38825896 -0.47501835 0.2869177 0.054212622 0.31009543 -0.064691976 -0.30279484 0.11002159 0.17265967 0.21781737 0.87491643 0.11922648 -0.6137171 0.37704867 -0.07920322 -0.44510204 0.4605233 0.30057666 0.11342659 -0.31353697 0.07461334 0.6475648 0.006347116 0.13153192 -0.32147947 0.051283177 -0.12627959 -0.10659654 0.12895893 -0.19680324 0.9335478
88 -0.35975236 -0.3637989 0.24784411 -0.18820967 0.015707357 -0.39858398 -0.16665722 0.11305635 0.22103602 0.25294518 -0.73235136 -0.23637459 0.4606574 0.30834663 -0.0927931 -0.4078534 0.28212896 -0.096209355 0.41986948 0.03767509 0.42697358 0.15134446 0.19374236 -0.365494 -0.50036615 0.37424564 -0.25463113 0.33433512 -0.021659749 -0.44249457 0.4209473 0.5788468 -0.33421904 0.08355168 0.23889518 -0.6439468 -0.16256328 -0.5142326 -0.060973894 0.22086726 -0.5139895 0.03962807 0.55818176 0.06655039 0.4179778 -0.9575853 -0.29706588 -0.6454322 0.062806495 -0.6646957 0.49837148 0.2230448 -0.0420507 -0.25775862 -0.11249792 -0.2558585 -0.0772082 -0.14071865 0.05152016 -0.20257264 -0.11051849 -0.747654 -0.20737275 -0.22487518
1013 -0.41335616 -0.69105124 0.2553238 -0.017949339 0.07017638 -0.5663411 -0.09742874 -0.30454072 -0.13401347 0.16620843 0.47738537 0.016358031 0.2098083 -0.23555408 0.050321307 -0.6204263 0.33683252 0.06293 0.27154598 0.32372478 -0.0028722277 0.08386316 0.58379894 0.3374264 0.030064996 0.6188995 0.6681981 -0.07210492 0.15334961 -0.5655866 -0.34944087 0.42949575 -0.1398938 -0.029305438 0.1483973 0.3210094 -0.22562596 -0.1750021 -0.4646282 -0.40199608 -0.2963545 0.5546465 -0.15430467 0.112646155 0.3528357 -1.1301898 -0.11484898 -0.5140026 0.010291716 -0.060407225 -0.116488785 -0.12378275 0.46992686 -0.32961872 -0.1480009 0.043378934 -0.14469963 -0.04376199 0.07313833 0.29748484 -0.39267623 -0.13997184 0.32016078 -0.17717409
598 -0.60866165 -0.30206147 -0.44560125 0.12353367 0.30732608 -0.091221355 -0.29034877 -0.35614973 -0.097691104 0.27585036 -0.3309367 -0.29439858 -0.817066 -0.41000208 -0.2571235 0.6990708 -0.5371445 0.2694173 -0.03662205 0.10877157 0.6051243 0.5331004 0.62194264 -0.15954982 0.042872176 -0.35118368 0.6578711 0.49692932 -0.69884104 -0.7792048 0.40866396 0.1497547 0.129289 -0.18443124 0.23019941 -0.21170035 -0.32481587 0.21394295 -0.10846433 -0.18269636 0.29209808 0.29595426 -0.16564332 -0.15617767 0.07187233 0.43048817 0.4110397 -0.4831277 -0.08349378 0.33152717 0.11253259 -0.008716862 0.60100335 0.2384093 1.0456734 0.3553464 -0.12486576 0.033191428 -0.28856045 -0.45632908 -0.12655419 -0.6671523 -0.40940538 -0.08698276
1914 -0.18737839 -0.48859832 -0.04209003 -0.42141727 -0.14752245 -1.0313767 -0.16676028 -0.2836271 0.13381086 0.30579126 0.07113459 -0.6898648 -0.5674074 0.4555576 -0.22934866 -0.10488179 0.16680516 -0.3819715 -0.21053088 -0.23996837 0.24090648 0.504946 0.7796124 0.67109686 0.43573758 -0.093268864 0.19752501 0.46801174 -0.80995065 -0.5863984 -0.38204646 -0.104368396 -0.6671201 0.38872516 -0.031248463 -0.04825324 -0.47776395 -0.37590852 -0.60245323 0.32826176 -0.3017063 0.20785092 -0.44138643 0.29285932 -0.071654834 -1.1678752 0.34774083 -0.27569774 -0.17626 0.013456545 -0.50089824 -0.45372227 -0.11503689 -0.24512805 -0.7678212 -0.17705165 -0.28345934 -0.1671335 0.009271722 0.3109682 -0.39338577 -0.064785525 0.4737003 -0.54678744
2045 0.124049045 0.028003553 -0.016592678 -0.20885096 -0.18606533 -0.27878433 -0.12094526 -0.41124958 0.3245465 0.022913385 0.39973143 -0.042857744 -0.04387114 0.092145145 0.049577035 -0.20066507 -0.0075807474 0.4830687 -0.39094606 0.42109674 0.120182544 -0.07009974 0.360121 -0.61950976 0.11618271 0.8834577 0.43124953 0.65628374 -0.41574445 -0.45891386 -0.3408934 0.7168429 0.42286396 0.12287261 -0.16675797 0.49135906 -0.0228432 0.19316901 -0.19905424 -0.3363467 0.2178584 0.23469466 -0.012160277 0.5144736 -0.14044021 -0.42359206 0.2665281 -0.37911102 -0.124523945 0.35430142 0.09789342 0.23912342 0.04171492 -0.085945904 0.5982153 -0.14278147 0.4675797 -0.17345855 -0.37395847 0.20181742 -0.72107667 -0.59463745 -0.01628512 0.1722856
733 -0.27260464 -0.42310977 -0.2251146 -0.63296103 -0.24510825 0.084103614 -0.35698348 -0.22453383 0.028730428 0.02563729 -0.3473469 -0.030691814 -0.7202149 -0.12083106 -0.1525987 -0.25124526 -0.2756281 0.11146081 0.23033944 0.66119266 0.7646688 -0.52948475 0.48227704 -0.8332104 -0.23581496 -0.039842222 0.037829023 0.026035288 0.034538854 -0.4927189 0.01812986 -0.6913448 -0.53736496 0.23314133 0.053617228 0.16380483 0.29125148 0.00978527 0.74661463 0.16568066 0.30919364 -0.31516886 -0.032718547 0.3284458 0.438015 -0.7321483 0.68809867 -0.0044274586 -0.8508111 -0.6147774 0.7007621 0.50434166 0.20818879 0.12568466 0.10217037 -0.3831628 -0.35559174 -0.5033136 0.24811523 -0.46042952 0.028826717 -0.16124547 0.3298705 0.24832374
109 0.48298153 0.09246371 -0.22855212 0.11797949 -0.3122554 -0.61363345 -0.74145025 -0.46197006 -0.24019231 0.34554383 0.15774465 0.15117939 -0.16608338 -0.2774048 -0.13714482 -0.2865149 0.02500986 -0.041005086 -0.3329 -0.1757512 0.039167035 0.17120826 -0.0010470883 -0.7958191 0.08666571 0.55348784 0.2700763 0.03955432 -0.29714596 -0.5994966 -0.3446785 0.23127766 0.5226198 0.41913664 -0.19591646 0.5666785 -0.37992448 -0.16939862 -0.23782673 -0.18894337 -0.07582128 0.24537326 0.027501924 0.7485744 0.12879185 -0.38571692 0.06922582 0.035489928 -0.38548547 0.3725874 0.30715546 -0.051327694 0.01213662 0.48691475 0.5541421 0.08581541 -0.07854073 0.13494924 -0.02232472 0.18063894 -0.6402044 -0.59972787 -0.072532356 -0.09912021
1072 0.33824563 0.7534984 0.29758382 -0.18809094 -0.060963314 -0.49546403 -0.47308204 -0.072861105 0.015737446 0.2540519 0.23765674 0.30621648 -0.2581773 -0.31206837 -0.33542088 -0.0832856 0.19229092 0.4308471 -0.16974166 -0.23305795 0.4915054 0.070008606 0.34374806 -0.20172966 0.476345 -0.15911807 0.0678317 0.7189012 0.08950791 -0.22228152 -0.5165352 0.40730375 0.31002235 0.05758983 -0.41559935 -0.43795615 0.13487901 -0.51273084 -0.2899068 -0.28076312 0.17988282 0.031837665 0.4163579 0.25268102 0.3555968 -0.23321553 -0.19320853 -0.29665673 -0.13718203 0.5031124 0.19672993 0.23985176 -0.23622784 0.29259363 -0.25001985 -0.38960984 -0.04140464 0.242935 -0.5193378 0.07724233 -0.4220349 -0.572664 0.022092698 0.046286877
1542 0.15437539 0.38252723 -0.09932604 -1.1560248 0.0890013 -0.68899083 -0.3422711 -0.11085207 0.016444305 0.2849827 -0.117568955 -0.4403095 -0.6333927 -0.07704102 0.3709949 0.62860733 -0.58079624 0.8276978 0.80282414 0.13542964 0.59604436 -0.18208602 -0.1416259 0.3910584 -0.17476822 -0.056100156 -0.014625046 0.4628117 0.020863077 -0.89454144 -0.27283186 -0.14099309 0.526434 0.10463423 0.14464872 -0.7837332 -1.0169612 0.4142533 0.51993275 -0.14403543 0.69994783 0.74630713 0.33073568 -0.47041357 -0.43581513 -0.11829475 0.55130213 -0.35859615 -0.22368275 -0.4781772 0.13340452 -0.90800184 0.4956694 0.16651641 0.556835 0.9219672 -0.43337065 -0.36318725 0.14606111 0.11478566 -0.654319 -0.811237 -0.09831356 -0.98128706
1441 0.24027328 0.6845448 0.16530682 -0.44237462 0.25061974 -0.6513971 -0.20539282 -0.07309544 0.57233113 0.7273046 0.33135173 -0.51446956 -0.3770534 0.71714914 -0.37758833 -0.34463757 0.03742391 -0.039232604 -0.08709478 -0.20277388 0.49052194 -0.31313735 -0.47832224 0.32380036 -0.35907504 -0.533747 -0.5015172 0.7805197 -0.018390194 -0.80344486 -0.21974924 0.014613926 -0.90636444 -0.084279105 0.7018845 -0.018681994 -0.42252398 -0.9502655 -0.59623194 -0.54939145 -0.41979173 0.21454065 0.078240134 -0.31754553 1.2707648 -0.88664556 0.1418706 0.71505606 -0.60897154 0.97670645 0.61237895 0.21711874 0.96801937 -0.60288054 0.20702706 -0.05105473 0.31798336 1.211684 0.37654746 -0.002864121 -0.61517155 0.167016 0.16883582 -0.45771158
1224 -0.57794327 -0.31906423 0.43820643 -0.25037697 0.1641617 -0.76940626 0.08265329 0.55146015 0.42797318 0.48957598 0.23714043 -0.32703248 0.1828683 0.5220907 -0.34504128 -0.0354105 0.51778436 -0.36417612 0.40298873 0.5631164 0.5181507 0.082199715 0.5103725 0.29655594 -0.043437734 0.09529936 0.06406632 -0.014984985 -0.5221044 -0.3877193 -0.51133454 -0.33633924 -0.55374914 0.064131856 -0.7614123 0.019342383 0.11052089 -0.80250263 -0.11693505 -0.80993515 -0.4455498 -0.06063696 -0.06129291 0.3114138 -0.010662153 -0.39851278 0.18911043 0.0028214138 -0.28559825 -0.29005787 -0.3244826 0.44963223 0.11571069 -0.5279104 0.0482905 -0.09219639 -0.47132733 -0.70939475 -0.49156162 -0.041093826 -0.3574428 -0.29572365 -0.23017499 -0.34891102
1169 0.23954229 0.091909036 -0.30250442 -0.0668311 -0.31227753 -0.5634115 -0.040939875 0.003306959 -0.19581619 0.3718351 -0.1301852 -0.5071804 -0.32250857 0.06405572 -0.2000227 0.49782252 0.2800181 0.33835626 0.6430206 0.06274873 0.8152905 0.3237021 0.3559064 0.15227182 -0.49939087 -0.9067086 0.5197449 0.6449932 -0.15368055 -0.091249555 0.5502896 0.84174305 0.15753238 0.25431162 0.10283198 -0.5061219 1.1707454 0.060380727 0.025532626 -0.7262778 -0.21628226 0.42281455 0.18338747 0.35978267 0.29522267 -0.7915825 -1.1122906 0.70238894 0.17842717 -0.11492093 -0.11001415 0.35629678 -0.1398292 0.5020436 0.2153087 -0.20471065 0.42308047 0.07405834 0.13697034 0.17556046 -0.4837488 0.019730326 -0.10707259 -0.5913233
1042 0.28862604 -0.5451381 -0.12143978 -0.6433689 0.3810927 -0.4458496 0.1664149 0.39723593 0.4129839 -0.447518 0.16289014 -0.21492988 -0.6066444 0.16948594 0.38895753 -0.53782725 0.01429849 -0.8335883 0.19405966 0.44271925 0.2472217 0.7270958 0.45260504 -0.49070048 -0.41805264 0.07352941 0.40294823 0.88361746 0.30418858 -0.36921376 0.336003 -0.5442311 -0.7831051 0.53601927 -0.28404805 0.6742362 -0.35032153 0.10606096 -0.5321775 -0.8246959 0.39784408 1.013921 0.6657623 0.7334072 -0.27097833 0.11636646 -0.56040037 0.2753947 -0.36008877 -0.54711545 0.11672042 0.003850508 0.20036589 0.47933233 -0.49478927 0.55003905 -0.9211069 0.46537733 0.7930533 -0.41418487 -0.7506926 -0.4560119 -0.24403411 0.33824912
1131 -0.26446328 -0.78044194 0.31849498 0.10797929 0.11335643 -0.35099536 -0.14161338 0.004820949 0.1992481 0.8698235 0.69977856 -0.6892415 -0.5840751 -0.43557853 -0.0039452286 0.50357366 0.31732562 -0.123024166 -0.109268 0.043688215 0.88495207 0.32049775 -0.057043687 -0.4755824 0.10864535 -0.2193939 0.19138078 -0.12626721 -0.25065744 0.4894364 -0.55004185 -0.2754284 0.07769852 -0.07648224 0.21067047 0.3992544 -0.18024845 -0.385416 -0.19229396 -0.9434605 -0.1657307 -0.06465526 -0.0783814 0.2722191 0.03182895 -0.3651494 -0.33729997 -0.35058343 -0.21224105 -0.5885422 0.31716922 0.2611119 0.58803856 -0.90821016 -0.07005195 -0.013922389 0.387425 -0.4475498 0.6994528 0.12464684 -0.87125635 -0.43739563 0.16595238 -0.19442254
1483 0.7119637 0.30298686 -0.2592333 -0.07136802 0.31739306 -0.60722023 0.066999026 0.31268516 0.24714209 0.26924703 -0.16290724 0.48580468 -0.26439115 -0.5294127 -0.7682061 -0.107776254 -0.2107538 0.58560103 0.09137745 -0.008726906 0.57574683 0.15959331 0.69499 -0.16692515 -0.6414332 0.37583816 0.05990708 0.253424 -0.08777468 -0.11821502 0.2332879 0.36181942 0.07839525 0.034180913 -0.7693921 -0.71745133 0.28843775 -0.7740017 0.32778785 0.13352664 0.71614146 0.6757641 0.4053159 0.9236274 0.056091413 -0.30078322 -0.3252618 -0.13425192 -0.4807739 0.7532214 -0.4836269 0.16665597 0.3122994 -0.12114072 -0.23668166 -0.21422675 0.53287643 0.2092378 -0.5709142 -0.23885573 -0.65608865 0.26739338 0.5641671 -0.04955524
415 -0.4372368 -0.51446366 0.04334321 -0.10996302 0.4685321 -0.3319808 -0.58184403 0.23389924 0.32987368 0.031120952 -0.5021409 -0.41929027 0.056552425 -0.432217 0.19970731 -0.48644224 0.20965531 -0.14590208 0.27889988 0.34747806 0.21547242 0.041566897 0.07370231 -0.37372184 -0.48969716 1.079746 0.1758953 0.075383045 0.4354788 -0.28324255 0.52671987 0.26424307 0.021599041 0.23729253 0.24865066 -0.35568964 -0.12703504 -0.8395341 -0.21993607 0.18385294 -0.67970514 0.46508402 0.3601613 -0.027136093 0.31859666 -1.0698347 -0.3095138 -0.56688184 -0.14931086 -0.5857655 0.24492796 -0.017204957 0.51564187 -0.08343179 -0.48684523 -0.30720115 -0.058264542 0.23568048 -0.0567912 -0.24681133 -0.26199833 -0.7030115 -0.33511117 -0.21484369
95 -0.35904348 -0.016775688 0.20151679 -0.3830669 0.5744073 -0.91019976 0.05976217 0.1745091 0.29829374 0.1348272 0.58837515 0.18049572 -0.49115908 -0.5943809 0.60687995 -0.27105182 0.34125105 -0.47639954 -0.5199572 0.27409264 0.35095993 0.37982026 0.32162255 -0.4281855 -0.114027515 0.22691509 0.033116236 0.17687473 0.12943405 -0.61605954 0.04044273 0.015855426 -0.80176604 0.50104743 0.3801955 0.02783069 0.06022236 0.1719541 -0.42884853 -0.0074846144 -0.19213746 0.6912878 0.39935997 -0.040476028 -0.14439659 -0.7001185 -0.54806095 0.57922953 -0.21539181 -0.5277251 -0.61651134 -0.24203816 0.51632416 0.29982617 -0.06002228 0.4481715 -0.25695804 -0.20901674 0.0024790787 -0.025422527 -0.6759224 -0.39733157 -0.80611724 0.23722726
1692 -0.65840125 -0.39860797 -0.5615852 -0.3321793 0.6384695 -0.41136238 -0.17960109 0.31627175 -0.25300798 -0.1605486 0.09653795 -0.93763775 -0.2796612 -0.859693 -0.07598541 -0.27949214 1.5141094 -0.027859384 -0.3789815 1.4692799 0.4151938 0.0048312386 0.7919829 -0.80414844 0.25573942 -0.05202784 -0.28331938 0.93911487 0.69157463 -0.1790173 -0.366696 0.26180586 -0.6031416 0.06175533 0.3248585 -0.14497337 0.25371155 0.4175684 0.98032296 0.14630602 0.9184493 -0.095752954 0.61097366 0.2099804 0.05464663 -0.08876427 -0.15351875 -0.44930694 -0.0023215576 0.08767775 0.3686607 0.84369606 0.23436111 1.0635669 0.043409858 0.13512078 -0.6992085 -0.69423133 0.5530762 -0.07979248 -0.88146544 0.70484126 -0.29033786 -0.2121422
2182 0.30502167 -0.21598363 -0.27930057 -0.6579626 0.54901546 -0.51918083 -0.1944659 0.59955513 0.031530946 -0.21594666 0.12286373 -0.39662966 -0.39471674 -0.38267055 0.20985137 -0.116280176 0.1104816 -0.5800096 -0.60007197 0.4886722 0.46770418 0.34179422 0.04732016 -0.5358461 -0.07899021 0.19149692 0.42100185 -0.042949352 0.60888857 -0.50892043 0.47417244 0.1472241 -0.8827744 0.41543147 -0.21901493 -0.7155383 -0.13999914 -0.3022111 -0.55490714 0.2566689 -0.43643793 0.5503072 0.020008568 -0.04725858 0.09518097 -0.84415895 -0.9265727 -0.13238713 -0.2953561 -0.3492302 0.2963897 -0.096981674 1.1116024 -0.18595591 -0.24522728 -0.055400304 -0.1828119 -0.16885999 -0.113448076 -1.1405789 -0.4482452 -0.10976075 -0.5594162 0.26849252
436 0.18324694 -0.7223469 -0.23947728 0.32658282 0.4836244 -1.2773325 -0.5393916 -0.24272223 0.716998 0.8631224 -0.18762909 -0.9341696 -0.57751447 0.1471451 -0.28371963 -0.25491077 0.18089509 -0.65833586 -0.3485879 0.41993356 0.22323678 0.40125042 -0.4814492 -0.2107995 -0.525141 0.1511586 -0.25570002 0.17480536 -0.47642663 0.4236381 -0.7186247 0.1294712 -0.2495513 -0.33803686 0.18669921 -0.017618706 0.4727321 -0.4262441 0.31032902 -0.41278058 0.1503904 -0.13935077 0.18462859 -0.4089342 0.3565517 -0.6216246 -0.4178948 -0.37020233 -0.30713174 -0.6298142 0.8654467 0.4714546 0.22105995 -0.8274317 0.20408453 -0.4841341 0.27044722 -1.1531358 0.47254118 0.16365269 -0.4730985 -0.36528847 -0.4867178 -0.08030054
963 0.49705237 -0.2072904 -0.8235545 -0.18621498 0.30456242 0.22117962 0.27595398 -0.43224096 -0.24167056 0.40790185 0.3916481 -0.12022059 -0.19508566 -0.41169068 0.6567566 -0.32244876 0.34009436 -0.69998616 -0.22565502 0.22604024 -0.11038525 0.99377954 0.4641697 -0.37098598 -0.97044975 0.9026433 0.5235202 0.9499528 -0.3247586 0.43928492 -0.6232681 -0.12196341 -0.2956114 -0.12597431 -0.50322056 -0.54839957 -0.18338722 -1.0329878 -0.12386581 -0.09458489 -0.033059154 0.057449073 0.08990855 0.259044 1.0052838 0.24824703 1.0472155 0.0083902385 -0.24523737 -0.17043908 0.23957576 0.4490207 0.27980328 0.39921844 0.66470397 0.1306546 -0.8877067 -0.21364467 0.68110985 0.490126 -0.6844276 -0.07045921 0.49265876 -1.0368341
1416 0.39249852 -0.785858 0.7384562 -0.8889664 0.49129394 -0.64682174 -0.1276844 0.17631169 0.23508708 -0.27549556 -0.11792343 0.5482092 -0.92515177 0.2963815 -0.08392082 -0.6637852 -0.26797405 -0.67145926 -0.28397214 0.114447385 0.4996704 0.6582878 -0.023329308 -0.47847068 -0.41459364 -0.11126755 0.13573124 0.67964953 0.0056690765 0.13686445 -0.0769782 -0.29130822 0.062915795 0.16010264 0.083679594 0.47026137 -0.04678475 -0.5149382 0.41639787 -0.54052466 -0.31892663 0.5224225 0.21362662 -0.007797286 -0.88289094 -0.19187805 -0.39576623 -0.15926373 -0.16322532 -0.25812125 0.074268565 -0.36421058 0.24776915 0.072359085 -0.605803 -0.3841427 -1.0620733 0.1456075 0.59802765 0.12398836 -0.89041346 -0.25902188 0.34863785 0.23994209
507 0.23075 0.14733665 0.34019917 -1.8830786 -0.314514 -0.6277568 -0.68186086 0.3389194 0.3705437 0.4562331 -0.2669789 -0.5383671 -0.56541556 -0.102826096 0.6061895 0.3848671 -0.36436057 0.8998029 0.87752265 0.3512345 0.72559947 -0.05153974 -0.4892912 1.2364138 0.076322004 0.30915704 -0.09323101 0.6017061 -0.49363437 -0.5049655 -0.8725653 -0.20681992 0.5430336 0.11977542 -0.83129066 -1.4600916 -0.831019 0.9656575 0.49744517 0.35677862 0.41148221 1.2330477 0.41980693 -0.1146094 -0.26371905 -0.08993786 -0.25149947 -0.4543684 -0.38591552 -0.901754 -0.2530475 -0.047524396 -0.0758972 -0.18641157 0.6791109 0.8997645 -0.45372418 -1.0308276 0.16490322 0.68057424 -1.236785 -0.51412624 0.15624963 -1.3741337
118 0.5749025 0.0966453 -0.079009384 -0.4342575 -0.32109725 -1.2582786 -0.64746535 0.28451836 0.121337146 -0.46523324 0.54678386 -0.46055707 0.07258361 0.25742456 -0.43387643 0.28648213 0.32966912 0.023229867 0.6971447 -0.09091277 0.35896298 1.104213 0.3477175 -0.4051858 -0.106566556 0.7332336 -0.76983535 0.113564104 -0.20623085 -0.19777316 -0.71063864 0.30944628 -0.4602876 -0.5804339 0.3360535 0.19962482 -0.7997712 0.12948684 -0.19269368 -0.52504927 -0.2805059 -0.19533755 -0.30798024 0.70302343 0.30456546 -0.34520552 -0.77642816 -0.47131383 -0.155626 0.029061565 -0.017098665 0.19834302 0.5445715 -0.7122044 -0.054814495 -0.23011811 -0.16000201 0.31785023 0.011180875 -0.061810285 -0.3738673 -0.6802458 0.60467255 0.035257705
1413 0.18485731 0.1539919 0.4107703 -1.6737345 -0.04301366 -0.30657023 -0.71307576 -0.10168323 0.12748913 0.6778351 -0.057301674 -0.24495676 -0.7393004 -0.19198126 0.5006697 0.3834326 -0.7054285 0.53108716 0.9396583 0.31099972 0.4468244 -0.16149324 -0.29187068 1.2574015 -0.04958026 -0.2631049 0.02609746 0.6844974 -0.11228479 -0.49767298 -0.8822294 -0.13222632 0.4814409 -0.022691488 -0.5160587 -1.2561016 -1.0205723 0.81320995 0.5455338 0.3991149 0.8335076 0.989694 0.42162162 -0.0668367 -0.32489878 -0.0971251 0.097401604 -0.36993638 -0.5656162 -0.76539636 -0.25807393 -0.5388514 0.5332863 0.18399836 0.85190386 0.99118286 -0.6387179 -0.7048161 0.20561364 0.2894276 -1.5504125 -0.89374995 0.03174323 -1.2112468
1257 0.22944658 0.7414486 0.6671865 -0.48153996 -0.006445901 -0.5437223 -1.0536873 0.31859183 -0.39334047 0.5691194 -1.1089555 -0.55741185 -0.81497246 -0.11508617 0.59481114 -0.086459465 0.56179 0.45823464 0.28498644 0.79333055 -0.41302243 0.055136662 0.124121375 0.56273323 -1.4490309 0.33631635 0.30797446 1.2666538 -0.66379344 -1.1187528 -0.07916888 0.9467711 -1.2397984 -0.1653489 0.0025422703 -0.02676347 -0.36434117 0.2783694 0.73510313 -0.81938684 -0.38594556 -0.56110036 0.014567645 -0.69282967 -0.08703092 -0.2035507 0.6686593 0.78838605 -0.026308822 0.038225792 -0.37208486 1.0779347 0.6171253 0.022488018 -0.8409779 1.1089859 0.38812652 0.3468201 0.8292715 -0.15162735 0.09719439 -0.9020536 0.91082484 0.24206711
661 0.73002845 -0.08055786 0.3589512 0.30205184 0.54699385 -0.6181728 -1.003247 0.31125104 1.0078536 0.76742256 0.4484609 -0.578515 0.16049321 0.7309919 -0.56647295 -0.035887003 -0.26090816 -0.2175269 0.35844883 0.15360819 0.2343379 0.17506017 0.47586927 0.2435546 -0.124531925 0.6881418 -0.297266 -0.8459027 -0.2638935 -0.3279879 0.0066525983 0.7393715 -1.1498481 0.42813286 0.40156874 -0.31737489 0.42448148 -0.6349002 -0.20261128 -0.07091088 0.4462069 0.14461288 0.018717967 0.166385 -0.009254702 -0.23508091 0.7788654 -0.23352894 -0.68238086 0.24840544 0.5271033 0.10007279 0.03037017 0.34697354 0.5793228 -0.12686864 0.0970239 0.721699 0.098857984 0.2191408 -0.31221145 -0.21225749 -0.15455823 -0.6416826
2155 -0.3808486 -0.35685056 -0.22149114 -0.62449384 0.22095889 -0.8854699 -0.084554955 0.44592914 0.5883483 0.49272382 0.22916923 0.3226826 -0.5367235 0.39247322 0.005808783 0.22455497 1.0615162 -0.55345726 0.06962686 0.070686385 0.6626812 0.25876942 0.59557486 -0.46145487 -0.18461624 -0.14283118 0.066357024 -0.15074943 -0.6523135 0.4945725 -0.606669 -0.13572665 -0.3116713 0.04737057 -0.50665593 0.05810616 -0.09848186 -0.25977874 -0.15580444 -0.9212073 -0.49558997 0.11959946 0.60738486 -0.19330756 0.007435148 0.06268909 0.037304346 -0.08335785 0.062156722 -0.14706989 -0.20266819 -0.055920016 0.14760776 -0.06928875 -0.72981393 0.09412459 -0.25367722 0.000790647 0.30582723 0.16084467 -0.7431971 -0.70966095 -0.010470638 -0.1282626
429 0.066570155 -0.081299216 -0.40502346 -0.32739037 0.24785076 -0.2998545 -0.36448833 -0.91027504 0.5156514 0.460455 0.046625935 -0.0607557 -0.1749707 -0.40627813 0.10936934 -0.5078781 -0.25355506 -0.9542775 0.11359494 0.88023716 1.4159224 0.12692079 0.8539161 -0.9114142 0.1542751 0.2601134 0.0042870776 0.4602559 -0.07291147 -0.31364974 -0.10648496 -0.08460418 -0.5345653 -0.2775838 0.1304997 0.16169079 -0.43976828 0.6086989 1.097193 -0.21452434 0.07909109 -0.2538477 0.9513244 -0.12725076 0.04476606 0.057059165 0.041263692 1.1356612 -0.31613985 0.058933537 0.45890725 -0.6303184 0.6453195 0.79093206 -0.072857924 0.04053678 0.2323462 0.03138565 -0.09500938 0.24879469 -0.18594791 -0.36044496 0.5020366 -0.020043718
973 0.27379033 0.006699508 0.49180835 -0.4485197 -0.14150222 -0.6967672 -0.5627339 0.2609657 -0.22688483 0.37788188 0.2869462 -0.14275734 0.45678958 0.31954753 -0.79670167 -0.07654127 0.20292795 -0.036934733 0.65667796 0.24601151 0.46488446 0.35331485 0.38115758 -0.4318745 0.19685139 0.67655426 0.37901142 -0.07002985 -0.53574806 -0.35154152 -0.22832155 0.066654146 -0.21035421 0.31437513 -0.015431817 -0.11505852 -0.38686752 -0.8031485 -0.12911046 -0.51735044 -0.34476003 -0.46620968 -0.30652976 -0.05062697 0.30616543 -0.2409494 -0.41277 -0.73048735 -0.15323561 0.8700053 0.34228992 -0.064053796 0.07455349 0.31007662 -0.18211317 -0.2677397 -0.11557212 -0.09121885 -0.19482435 0.21244094 -0.41426244 -0.5165063 -0.2209348 -0.2857603
2248 0.24756382 0.720228 1.0291423 -0.27753207 -0.33750257 -0.2932079 -0.99710536 0.34751683 -0.33396143 0.6129883 -1.1093148 -0.8429506 -0.2595259 -0.8803877 1.1452065 -0.13365817 0.56122327 0.6541836 -0.37074465 0.6452012 0.33702445 0.31473124 0.084082656 0.16050084 -1.6862743 -0.07748065 0.43794227 0.7134905 -0.4337468 -0.66342 -0.89695615 0.37131315 -1.7659924 0.32661557 -0.63547105 -0.26979816 -0.73180485 0.21940334 0.3323123 -0.9066087 0.0033951218 -0.27321506 -0.061452813 -0.6294793 -1.0677979 0.19216949 0.8620803 0.8468664 0.27031258 -0.18768623 -0.105464384 0.951623 0.60399705 0.30294353 -0.049957357 0.15578005 0.4428866 0.4729949 -0.183355 -0.49130538 -0.26851836 -0.31793806 0.45184496 -0.01844064
2001 -1.0606176 -0.16042177 -0.26573887 -0.5643224 0.8106187 -0.27355006 -0.23060392 -0.7261074 -0.20814238 -0.34006304 -0.018381517 -0.35381868 -0.2932311 -1.0027692 0.1491484 -0.33078426 0.07749547 -0.06973525 0.46197206 0.5244339 1.20782 0.37450182 0.1583317 -0.34079742 -0.17677702 0.4085208 0.026243182 0.6461315 -0.72887564 -0.36853188 0.4647854 0.7227195 -0.33485413 -0.117250815 -0.12879364 0.043167327 -0.69671685 0.2608179 0.6683217 -0.4547307 0.49174842 -0.68216854 0.8075742 -0.2715371 -0.07332171 0.28970006 0.052654885 -0.02914696 0.11268183 0.6247733 0.327978 -0.3820785 0.35306585 0.7702147 -0.39621472 -0.1450592 -0.31051844 -0.66318357 -0.13535558 0.06884107 -0.6355985 0.6260931 0.29898795 -0.039216273
310 0.12926176 0.48640916 -0.4224697 -0.7836862 -0.06338666 -0.21352106 -0.6674999 0.34335312 -0.52874696 0.22050278 0.282454 0.16525804 -1.1378794 0.19005853 0.36987573 0.3293256 -0.11602007 0.95165294 0.3365413 0.80315703 1.0320851 0.2769371 -0.09703309 -1.0783825 0.15891933 0.018199384 0.5590806 0.67455167 0.35595185 -0.96026033 0.7454713 -0.27122965 0.5370138 0.3411803 0.31660998 -0.95728564 -0.5244669 -0.46953335 0.26173 0.17708758 0.78984934 0.04915849 -1.1568094 -0.47042933 0.18909483 0.14359097 0.7685661 0.31040227 -0.72182304 -0.5476876 0.5061664 -0.9862866 0.5618682 -0.47927672 0.18894961 -0.0959419 -0.26315486 -0.9492735 0.20496863 0.059737522 -1.07433 -0.62766635 0.42993942 -0.27452758
1703 -0.36159658 -0.39792594 0.05323112 -0.1954642 0.2433854 0.20022883 -0.36353326 0.43941736 -0.6289856 -0.1760684 -0.08244684 -0.10588481 -0.46856144 -0.16682053 0.9826 -0.15284882 -0.16563438 -0.17933244 0.36390328 0.23969409 0.5385837 0.7643921 0.65753466 -0.4360925 -0.83837366 0.26066563 -0.49140072 1.0324475 -0.3320053 0.73364586 -0.14836793 -0.42114183 -0.41672954 0.23557782 0.63563794 -0.75038266 0.051610395 0.261712 -0.5616068 0.08685379 -0.2922257 0.015980868 0.32865265 0.89417666 0.952805 -0.15804477 1.1490543 0.21478206 -0.41905218 -0.29350495 -0.011428034 0.08408709 -0.38397372 0.13548847 0.52589583 -0.57064265 -0.55746484 -0.25012696 0.07074098 0.1575926 -0.6145481 0.074541055 0.6345369 -0.6764026
1103 0.123081334 0.0071064844 -0.36501178 -0.74862015 -0.3304021 -0.10382046 0.45122355 0.41479957 0.3515759 0.32319975 -0.14219004 -0.6752163 -0.7096794 -0.18452054 0.49785948 0.16201259 -0.31372333 -0.04144545 0.2894979 -0.17076755 0.9061256 -0.2446373 0.27047715 -0.36633062 -0.5820202 -0.6137516 -0.057923462 0.19246103 -0.07334335 -1.1200823 0.4233495 0.4732912 0.01065891 -0.47050354 -0.74117786 -0.32129568 1.1829572 -0.41173452 -0.055767197 -0.16153166 -0.5734615 -0.20737146 0.10343122 0.99333644 -0.4738921 -1.063198 -0.10302114 0.20185322 0.17278649 0.23875795 -0.5653355 -0.14786416 -0.24828617 0.4851129 0.27081168 -0.4995327 0.15039982 0.100621834 0.33625558 0.3484977 -0.56945807 -0.21585499 0.16371484 -0.47179592
1309 -0.2512729 -0.38324866 0.1852327 0.065782934 0.43557477 -0.41168162 -0.38527173 -0.10419036 0.36874336 0.32680365 -0.52310956 -0.5518617 -0.16517545 0.6099598 -0.12825383 -0.36974952 0.46404052 0.31487918 0.4254112 0.27468884 0.5934403 0.15501587 0.24327774 -0.32814896 -0.5541349 0.4669825 0.41896015 -0.06400489 0.8757014 -0.5725449 0.27550185 1.0970463 0.08760802 0.82155013 0.37108868 0.19362815 -0.06302305 -0.44206122 -0.10516051 -0.041826565 -0.63144225 0.30017903 0.7133334 -0.008255482 -0.038019475 -0.8769186 -0.2248734 -0.63196254 0.04222463 -0.813922 0.42628416 0.13512263 -0.25876677 -0.14878647 -0.29167932 -0.43130937 -0.22818942 -0.10821058 -0.015378158 -0.08175386 -0.08156916 -0.55182695 -0.39793646 -0.43262777
1765 0.40030336 -0.15446024 -0.267697 -0.27151278 0.15410377 0.033801842 0.3348681 0.14865842 0.27813074 -0.045071397 -0.26473385 -0.43801707 -0.5393766 -0.15422332 -0.5161142 0.4487273 0.46591738 0.14416479 -0.07071548 0.5819589 0.5537229 -0.2642924 -0.014711785 0.0141375875 -0.48662582 -0.4910824 0.6023391 0.2829551 0.25497687 -0.67221 0.4277128 0.4154335 0.41606855 -0.3004305 -0.21056235 -0.61158913 0.6804249 -0.17201369 0.020116162 -0.9149309 -0.15328789 0.40487546 -0.06823033 0.53958726 0.122701176 -0.7958347 -0.52745634 0.5268846 0.5322944 -0.431624 -0.032562345 0.43835935 0.112448014 0.756206 0.6919621 -0.4414595 0.23412912 0.5403795 -0.21546833 -0.012213637 -0.32412416 -0.357694 0.62742233 -0.70544744
1628 0.21755233 -0.5574646 -0.35002032 -0.8087176 0.7247129 -0.6225988 -0.4466993 0.60985684 0.37967297 -0.38009 0.31248674 -0.25517684 0.0807305 -0.34787506 0.18207136 0.0074935937 -0.2744328 -0.93777305 -0.1715965 0.56469226 0.07021284 0.8275509 -0.1734376 -0.60691035 0.3029684 0.38151902 0.5814715 0.59795463 0.6046816 -0.112286195 0.27902004 0.2905105 -0.78687406 0.9377383 0.36826542 -0.23328441 -0.016744286 -0.09997091 -0.6277007 -0.3376392 -0.05997216 0.39948076 0.70140696 0.12575144 -0.27949676 -0.6339707 -0.19657113 0.23615782 -0.1976715 -0.20665346 -0.45866883 -0.045832884 0.8640456 0.51770514 0.061724424 0.4988503 -0.18973844 0.2094607 -0.25646794 -0.58410597 -0.44555175 -0.11967541 -0.008559936 0.20983014
2394 -0.9787702 -0.25092092 -0.37388137 -0.0038252592 0.11554215 -0.6647229 -0.7349823 0.61252254 0.023772016 0.21048094 -1.262128 -0.7408549 0.96040314 0.12652084 -0.7813622 0.24578872 -0.20227262 -0.20326297 0.1563996 0.72644424 0.54964477 -0.5116916 0.02569477 0.04808537 -0.32861787 0.46173522 1.0001142 0.533497 -0.06790939 -0.8509405 -0.36605817 -0.052912828 -0.8508241 -0.3704968 -0.13032736 0.16026095 -0.4560424 -0.6636813 -0.5223528 0.85960406 0.16158547 0.37051716 0.44486514 0.50286144 0.2691837 -0.99888647 0.419436 -0.5870074 0.41878128 -0.70932066 0.51647484 0.20813383 0.06153096 -0.5753332 -0.3858276 -0.48066494 -0.1192696 -0.36613518 0.1428072 0.13316108 -0.6623069 -1.1235284 0.5132044 -0.1635859
1973 -0.35997793 -0.39447924 -0.556768 0.5560465 0.16351593 -1.2104614 -0.7453235 0.38000643 -0.16104858 0.38903597 -0.04665904 -0.89036244 -0.09004381 0.80581677 -0.07149041 0.324832 0.44345486 -0.10172501 -0.074641824 0.501181 1.1819355 0.12640376 0.2196434 0.68549323 -0.6254835 0.11384269 0.078225255 0.11153539 -0.3265118 -0.5884591 -0.5628754 -0.12826174 -0.17366686 -0.32769704 -0.35973427 0.031760316 -0.2023592 -1.0870804 -0.18925905 0.19544958 -0.53175896 0.59668225 0.11250259 0.2952268 -0.008992923 0.07690359 0.39719707 -0.25688797 0.1592765 0.028017685 -0.30046844 0.04050583 0.47763386 -0.6339378 -0.95545053 -0.42423835 -0.20605929 -0.03163168 0.41186112 -0.61603224 -0.52359796 -0.2307303 -0.42119864 -0.3485548
1624 0.47179708 0.018073887 -0.33918887 -0.48815462 -0.40985012 0.028489176 -1.1553276 -0.22591373 -0.46930388 0.59814197 0.26831102 -0.011452685 -0.12765391 -0.33475158 0.1825869 -0.02960331 0.62389135 -0.38867766 -0.24678467 -0.4063999 1.0054915 0.2469089 -0.38507488 -0.34368655 0.1570184 0.23493755 0.21725021 0.49229407 -0.028533308 -0.358559 -0.09317406 0.74596715 0.2391872 0.6567189 -0.663175 0.6648545 -0.21041116 -0.6043311 -0.23440151 -0.09022109 0.4480075 0.61297953 0.35107905 0.94525015 0.032737635 -0.40772685 0.5997624 0.25135946 -0.5278505 0.20158693 0.59785175 0.1676226 -0.033803765 -0.024254063 0.4707852 0.4490297 -0.025114544 0.13660431 0.017079825 0.12825842 -0.3377122 0.5119701 0.22964609 0.4174013
2671 0.10167298 0.7453124 0.801444 -0.8139713 -0.23534225 0.23569426 -1.1131581 0.412496 -1.0198814 0.41353995 -1.3331501 -0.6053337 -0.74951327 -0.1364326 0.2466478 -0.38797128 0.8877078 0.92393184 -0.02594932 0.6349307 -0.6152463 0.56125927 0.21027893 0.8528731 -1.2751151 0.6301764 0.9134819 1.3681817 -0.8129208 -0.97840554 -0.067792974 1.1750277 -1.0100482 0.11809375 -0.2791843 -0.04923363 -0.1548828 0.7104746 0.6445214 -0.7281714 0.25713602 -0.17405008 -0.17775546 -0.4681114 0.15421873 -0.7778724 0.35537055 0.8617312 0.011174389 0.4542544 0.058576144 0.41154718 1.0218874 -0.34402004 -0.86992854 0.9350301 0.07243323 0.51369023 1.0523738 -0.15563715 -0.44822386 -0.98264813 0.6763215 0.19629523
1229 0.06644811 -0.109193854 -0.5879399 -0.0867573 -0.2537174 -0.5436946 0.26282272 0.4355955 -0.20705856 -0.061834883 0.321224 0.48876828 -0.28292695 -0.9189757 -0.1306706 0.71761376 0.40166175 -0.15506181 0.72308105 0.027597742 0.09719283 0.43543458 -0.32913515 0.45818812 -0.63811344 -0.193468 0.27105564 0.35945177 0.11080193 -1.5527362 -0.3443834 0.4545239 0.28244516 -0.7115931 -0.5613741 0.047898076 0.6296915 -0.10291899 0.46059138 0.3389263 -0.15976156 -0.2210194 0.49095732 0.23840839 -0.21544975 -0.7393619 -0.57647043 -0.030262692 -0.25301126 0.12084305 0.54193366 -0.109611645 0.44338122 0.52352667 0.24870393 -0.61660236 -0.15289506 0.20249337 -0.35011014 0.10122816 -0.8628792 -0.72723055 0.62504685 -0.59899616
1742 -0.11631474 -0.2519574 -0.40578863 -0.6808296 0.044931762 -0.040352352 -0.3295752 0.12378581 -0.027376916 -0.03199997 -0.5610472 -0.19597772 -1.0083807 -0.37809256 -0.2215902 0.34108657 0.55751586 0.44918004 0.64634824 -0.09082525 0.043742158 0.11929555 -0.010484777 0.057008456 -0.019198565 0.11968622 0.41486233 0.49396613 -0.2717333 -0.34210637 0.022490378 0.23776752 -0.035159003 -0.009389631 0.07818511 -0.48066464 0.5763748 -0.5812884 0.4174311 0.37790748 -0.24964422 -0.028850656 -0.059320495 0.529496 -0.20373736 -0.025789227 -0.7190101 0.14797448 -0.11730375 -0.11871033 0.09667014 0.37403417 0.4962951 0.6008047 0.64092135 -0.3905512 1.1018142 0.17166643 -0.5058888 0.9828347 -0.8042853 -0.5803931 0.92113256 0.3963155
1725 0.59286314 0.2858443 0.11278427 -0.17091161 -0.3372899 0.016427938 -0.18337433 0.13073806 -0.30964226 0.8372045 -0.41746256 -0.24450281 -0.86010224 -0.2916708 -0.24940963 0.5004792 0.21843967 0.5537775 0.23325932 -0.07983567 0.28037715 0.4059125 -0.17519142 -0.07083996 0.24242544 -0.060812593 0.19756483 0.7493679 -0.16411959 -0.41702497 0.006028903 0.008839948 0.24941698 -0.026316797 0.09811435 -0.23482469 1.1669186 -0.648181 -0.6436526 -0.014943296 -0.17568934 -0.14470622 0.4727078 0.18418024 -0.054332104 -0.5854281 -0.3442614 -0.47083476 -0.10879853 -0.11182116 -0.21152712 0.24012373 0.050538003 0.5813941 0.020903783 -0.5799958 0.42489928 -0.11288902 -0.34176517 0.48357528 -0.3435204 -0.18598485 0.3875371 0.040061317
1740 0.47991356 0.19061153 -0.1767672 0.36069345 -0.57968634 -0.44827756 -0.25965306 0.367295 -0.31522033 0.9659627 0.09696146 0.4961804 -0.35786027 -0.7506998 -0.008104447 0.21584338 0.04671137 -0.008836883 0.4447686 -0.18595046 0.21095362 -0.1940665 -0.008788805 0.40467674 -0.084917895 -0.11392069 -0.28436747 1.0468583 0.6269496 -0.85605377 -0.20494713 0.32633686 0.39460668 -0.19551082 -0.22042406 -0.45533627 0.72592187 -0.24881932 -0.5374488 -0.28805688 0.34955212 0.57836044 0.6118697 0.1258024 -0.16888241 -0.55763245 -0.08783138 -0.5186455 -0.6978003 0.115096904 -0.45612234 0.5326322 0.25555003 0.45641986 0.07651779 -0.7130287 0.37464648 0.1958135 -0.50018334 0.086665 -0.21684133 -0.64933205 0.49557734 0.208867
687 0.42838344 -0.21172069 0.20869206 -0.24409877 0.52346647 -0.085662596 0.07264238 0.43694216 -0.13660969 0.5136548 -0.9158399 0.38832596 -0.75649756 -0.80019057 -0.4143966 0.10260916 0.2960746 0.20805602 0.12788011 0.0035410887 0.37575287 0.2103128 0.33769476 -0.23633206 0.331909 0.08131668 0.6799864 0.67550385 0.23578891 -0.32963738 -0.2724149 0.43649828 0.13597813 -0.5992176 -0.14532016 -0.17077295 0.84535956 -0.51738685 -0.8603122 -0.0352787 0.22126216 0.34532088 -0.4472206 -0.19705737 -0.12270175 -0.6410853 -0.05868748 -0.055823553 0.24702229 0.27667668 -0.36803418 0.164121 0.25766814 0.4281703 0.6851853 -0.13641965 0.7405343 -0.40243492 0.099404916 0.29959854 -0.16248213 -0.17530355 0.5104355 -0.29628754
1894 0.0932006 -0.21725503 -0.2724571 -0.40460956 0.2090662 -0.15135151 0.5173338 -0.3249856 -0.6982805 0.31016627 0.39770094 0.13478516 -0.21844609 -0.19149074 0.353695 -0.26220453 -0.36933243 0.8638901 0.3041285 0.7191734 1.411879 0.6122493 -0.49686742 0.09836132 0.9327565 0.053891603 -0.012920474 0.19603132 -0.21184789 0.27564114 -0.41344252 0.12327662 -0.22298172 -0.81521666 0.014995061 -0.25924295 0.17239054 -0.38091385 0.21502605 -0.77265704 -0.6196594 0.57421917 -0.6088986 0.19263922 -0.009628558 -0.19669066 0.5877316 -0.039174777 -0.39766848 -0.6504153 0.1086952 0.49218085 -0.0092268335 0.2215972 -0.08909496 0.24005514 -0.24451995 0.12647766 0.11370038 0.7946936 -0.35762617 -0.5345317 0.02098203 0.27607253
1950 -0.032746483 0.59839576 -0.34190866 -0.70935005 0.5104796 -0.20649657 -0.5026352 0.47761488 -0.47226107 0.07134059 0.65763026 0.08221619 -0.79059273 0.13161509 0.21969035 0.604192 -0.15777776 0.75022227 0.56217223 0.8909729 1.0699657 0.26110914 -0.2870107 -1.0732056 0.3623565 -0.38903275 0.44318703 0.72368383 0.3836659 -0.9289997 0.059012037 -0.09424291 0.76524216 0.7526047 -0.080867946 -1.0556989 -0.58138627 -0.51642936 0.14936219 0.12684888 0.9378825 0.22172095 -1.1835675 -0.18864873 0.121447265 0.043534726 0.5853424 0.2155036 -0.36643738 -0.5124138 0.54505247 -0.9446643 0.8178149 -0.3862467 0.27221042 -0.160948 -0.25641674 -0.72849834 0.21803734 0.5473196 -0.626627 -1.0742577 0.64369005 -0.22087935
525 0.24726252 -0.22946382 -0.29526433 -0.7281407 0.54127437 -0.7428129 -0.550715 0.39155057 0.5674969 -0.4040426 -0.02977696 0.074857555 0.13287437 -0.85018134 0.38561296 -0.26085797 0.13510391 -0.893012 -0.68025416 0.7351337 0.1999175 0.72779125 -0.28599244 -0.46824878 -0.1237124 0.6855371 0.25227496 0.25339136 0.6273764 -0.5191636 0.5450005 0.26237783 -1.0781138 0.6748217 0.22806773 -0.7493695 -0.1072435 -0.35124758 -0.119244136 0.06697963 -0.037090138 0.54679435 0.47869882 0.10993634 -0.27799666 -0.792166 -0.412753 -0.4049611 -0.3461353 -0.69102526 -0.4061155 -0.064029664 0.75241446 0.4607452 -0.10160665 0.32295537 0.2658667 -0.16898349 -0.047969267 -0.4386884 -0.63232696 -0.31255686 -0.8218756 -0.16396724
2367 0.020943891 -1.6460916 -0.067385785 0.23444238 0.14718379 -0.92568386 0.0132044675 -0.2120523 -0.7479323 1.0331043 -0.9861306 -0.5273996 -0.041617863 0.2635335 -0.06301503 -1.2902447 0.33357003 1.5108541 -0.7986681 0.516998 -0.06951331 0.27919286 0.13859677 -1.0037848 -0.4208315 -0.68114144 -0.4909707 0.363894 0.10825863 -0.9303486 -0.56357884 0.19047216 -1.0171183 0.31604794 -1.0216787 -1.3908975 0.22489624 0.6837652 -1.6706084 -0.85947764 -0.38777688 -0.21442106 -0.3312112 0.3976239 -0.8601699 -0.22830959 0.49848533 -0.23280957 -1.8806156 0.55122447 0.065411694 -0.14490677 0.31162202 0.27689472 -0.50179756 0.9362615 -0.7244462 -0.2599499 -0.6622196 0.66081667 -1.1099144 -0.11902645 0.4984552 -0.72955185
1927 -0.13376972 -1.0471838 1.0564936 -0.96653056 0.6913167 -0.4168992 -0.15356219 0.025245903 -0.29116303 0.44490755 -0.4936774 0.42616886 -0.5191883 0.71906656 0.17800838 0.40811005 -0.11904421 -0.7126001 -0.4213116 0.5647846 0.5847691 0.7208736 -0.092816725 -0.9070465 -0.20594445 -0.48629025 -0.23861524 0.42746022 -0.08188895 0.0050133946 -0.1052131 -0.28262493 -0.33334282 0.013051162 0.20579052 0.28032336 -0.16395509 -0.6278303 0.9384571 -0.9506101 -0.42327353 0.7185472 0.40222585 0.07486279 -0.3249898 -0.5526822 0.43194774 -0.5645886 0.26172403 -0.6387445 -0.39404535 -0.17593469 -0.08390289 -0.15208465 -0.123744786 0.33371064 -0.40643448 -0.015988385 0.622435 0.52511895 -1.0412354 -0.3135545 0.7965071 0.348079
1015 -0.3235764 0.009623474 -0.7443609 -0.2972537 0.69399136 -0.084743105 -1.5738305 -0.51372075 -0.14059733 0.7297385 -0.20078288 -0.009140415 -1.1386118 -0.22042106 0.31790668 -0.17222503 0.5953799 -0.9649483 0.31931987 0.43223 0.8098477 0.0075299903 0.23418151 -0.35586992 -0.45021492 0.39729032 -0.083684884 0.25277013 0.36293057 0.074583165 -0.4386345 -0.060608417 -0.030407313 0.090831675 -0.70433754 0.2177307 -0.129872 0.24257712 -0.49041247 -0.8018335 -0.3233583 -0.19424146 0.44130442 0.8879292 0.2848895 0.1415854 0.24008219 0.5190372 0.14423156 0.30922988 0.66049355 -0.6636575 0.37225372 0.42497417 -0.17138018 0.15201892 -0.7277989 0.4413201 -0.1042312 0.5085067 -0.014017872 -0.40224147 0.20620191 0.39011133
577 0.29616854 -0.7304306 -0.12364752 -0.49908093 0.4102854 -0.32287028 -1.8431145 -0.89527386 -0.58613276 -0.27624524 0.2843503 0.7059083 -0.20568034 0.120392 -0.9109954 -0.19056098 0.05328795 0.7887146 0.22160167 0.62771946 0.43518165 0.38459373 -1.1456984 -0.1462263 0.5643615 0.24764514 0.9047128 1.7027779 -0.8380491 -0.5571197 0.59488 0.18397005 -0.671898 -0.63448274 -0.8933923 -0.82383764 -0.20109876 0.33371818 0.13421148 -0.9999209 0.5501258 0.14292653 -0.005376969 -0.44889277 -0.7818536 -0.85479337 0.78072095 1.2096559 -0.28282928 -0.94531757 0.06349087 -0.5179585 -0.28246704 -0.39334017 0.21936716 -1.718084 0.29314065 0.10646013 0.88705367 -0.49445713 -0.22610363 0.079909086 0.2470572 -0.99089587
239 0.09563098 -0.3952308 0.13244697 -0.477946 0.39036262 -0.47417268 -0.30755225 0.23980026 0.2265413 0.14442015 0.41980174 0.12983191 -0.042503484 0.15030262 0.108427435 0.4120308 0.104844205 0.020282054 -0.43292066 0.22215097 0.32488832 0.3774049 0.02903823 -0.26777163 0.16381297 0.4799102 0.5460418 0.35266408 0.12706114 0.24928778 -0.19520979 0.43306696 -0.22300641 0.7442238 -0.56534773 -0.29719302 0.78343815 0.1299347 -0.3442541 -0.14458781 -0.29857782 0.66366756 0.061501943 0.4447698 -0.31924623 -1.661681 -0.049661253 0.12267122 0.14992544 -0.14568226 0.48047787 -0.40456337 1.4779668 -0.28358027 0.6720328 -0.3709173 -0.27751943 0.13585235 -0.3480549 -0.7773175 -0.20601465 0.48584393 0.018338015 0.71647173
1050 0.32321933 1.5710273 0.7202041 -0.32624623 0.61992234 -0.31773663 0.22133777 0.73981845 -0.9292025 -0.123531945 -0.14267342 -0.6483017 -0.39939144 -0.9782754 0.10643941 0.08049063 0.57594323 -0.20028193 0.66931945 0.24079792 -0.50372195 -0.26452973 0.60214305 -0.45904577 -0.19664854 -0.38891146 0.6783208 0.6348822 -0.016533239 -0.48273003 -0.20077924 0.23641607 -1.1245022 1.0487272 0.82551724 -0.57780564 -1.0330058 1.4122885 0.5378087 -0.70661116 -0.5466277 0.40359962 0.42304108 0.67093015 -0.89858 -0.86590856 1.2192034 0.8949874 -0.20205101 0.10965253 0.48375055 1.8070302 0.03477541 -0.56205255 0.798045 -0.7371226 -0.31880602 0.38327378 0.9912161 0.10671907 -1.1905769 -0.049512427 0.5990854 -1.4998393
2464 0.93633753 -0.8758263 -0.6555895 -1.0187011 0.88245875 -0.42044672 -0.12579973 -0.423178 -0.79786414 0.5879566 -0.7033331 -1.3242637 -0.29575214 -0.7754337 -0.024613833 0.54900616 0.063667744 0.87388444 0.5449717 -0.89240193 0.23215799 0.13403913 0.2652175 -0.6317469 -0.7889194 0.64772224 -0.29519984 0.78957176 0.78276944 1.5695926 -0.003664259 0.6140581 -1.0541226 -0.14991362 -1.0062846 0.27841172 0.49887836 -0.6734764 -0.054437093 -0.18120082 0.55572057 -0.28974235 -0.020249113 -0.3513119 0.5305553 0.065935634 1.1976277 0.93550354 -0.5151844 0.0648746 -0.045625627 -0.59200215 0.4619197 -0.29935646 1.1289994 -0.5953839 -1.0378209 0.62137705 1.0813477 -0.14909181 -0.672459 -1.2004493 0.0935832 -1.4857779
1505 -0.37371224 0.87274754 -0.47466448 -0.5942148 -0.43108177 -0.52673715 -0.73998874 -0.29506266 -0.33190602 0.15605247 0.5069957 0.43797195 -0.013183474 -1.1518637 0.27232736 -0.69544905 0.31352517 0.063128866 -0.1146532 -0.5126408 0.8939315 0.31111106 -0.24314749 0.16549702 -0.10642129 0.045365717 -0.008503194 0.5069054 0.32033816 -0.51810235 -0.80437636 0.73207563 -0.030252453 0.37694722 -0.031843796 0.057112917 0.031915925 -0.5414271 0.046075113 -0.64706725 0.16200458 0.18154669 0.52620345 0.5516514 0.03882768 -0.27565217 0.31450608 -0.27019235 -0.45479283 0.20031554 0.56703883 -0.18531686 -0.20795129 0.46107855 -0.051157366 -0.04822954 0.11276081 0.4697513 -0.34907475 0.027951779 -0.40002844 -0.016660096 0.23102845 0.12392289
1119 1.1058674 -0.7263896 0.23484534 -0.65803593 0.32145223 -0.013552598 -0.31548327 -0.45333493 -0.4150971 -0.2608869 0.15086128 0.33182096 -0.46169972 -0.45430738 -0.57200396 -0.6738488 -0.075547785 -0.42087236 0.2356958 0.42389652 0.8718008 0.9452806 -1.1565021 -0.3477762 -0.37230292 -0.03528992 0.13470323 1.7320886 -0.81470054 -1.0921217 0.38958314 -0.24909382 -0.5741106 -0.5046052 -0.4368867 -0.96809226 0.026941681 0.73876834 0.32353872 -0.56021917 0.90631837 -0.027943844 0.61377805 -0.9365062 0.1098467 -0.666296 1.563751 -0.33185455 0.45810783 -0.46381643 -0.024515143 0.47923243 0.40505177 -0.6819173 -0.81198764 -0.9747993 1.5103588 0.572195 0.262529 -0.12314718 -0.2427661 -0.034138057 -0.4541609 -0.031143082
2025 -0.086116634 -0.7705437 0.39059564 -0.5248079 0.44282985 -0.65178645 -0.1646291 0.9855276 0.19223082 0.37947586 0.37199444 -0.20228438 0.20427717 0.4388578 -0.6842973 -0.51267207 0.16669814 -0.16241926 0.45243803 0.43548933 0.63132757 0.84413224 0.72731394 -0.37071994 0.21744762 0.5540677 0.27675492 0.2873035 -2.472435e-05 -0.23021121 -0.5182242 0.10549783 0.17675674 -0.3704255 0.023787541 0.71278477 -0.124893434 -0.7105678 0.4099556 0.030539772 -0.23644693 0.019915959 -0.077614166 -0.9225869 -1.1161693 -0.6638777 0.27645725 -0.028008236 -0.67560136 0.7471647 0.22401617 0.31413552 -0.22060676 0.31267092 0.5360777 -0.6001692 -0.6784605 -0.5150244 0.0008280792 0.37886596 -0.47885257 -0.020736933 -0.08001275 0.405634
350 0.7720795 0.28801253 0.35827777 -0.29048398 -0.2628874 -0.9479409 -1.0812976 0.12768179 -0.22087878 0.31617343 0.33899578 -0.472846 0.24485381 -0.5280206 0.06724252 0.11979363 0.24661028 0.10172801 -0.6002523 -0.48612157 1.1665123 0.24232695 0.7554873 -0.22687675 0.31177673 0.7580377 0.39568612 0.7311291 -0.037130214 -0.13485488 -0.02487865 0.79705673 -0.084713146 0.24248083 -0.6663997 0.27265522 -0.30997777 -0.21577746 0.12720981 -0.46704325 0.44693187 0.4428352 0.34219202 0.64239216 -0.12506056 -0.0031236773 0.27511188 -0.5188564 -0.5400378 -0.15605791 0.83693546 -0.14787045 -0.50355613 -0.32763723 1.1375662 -0.05496921 0.066599 0.13624905 -0.0027523448 0.5626793 -0.2126893 0.16579244 -0.015935702 0.8897591
1966 -0.43619668 -0.22068256 -0.035902545 -0.4402813 0.65920436 -0.30698574 -0.71287894 0.94501066 -1.007352 -0.72019583 -0.006481827 0.48025268 -0.55700636 -0.33544958 1.3246458 0.16068557 0.20578656 -0.09156756 0.551366 -0.037057064 0.440283 0.7540832 0.7826422 -0.2636106 -0.51452607 -0.40757316 -0.47526827 0.91867554 -0.63000906 0.5067683 -0.3117077 -0.38948116 -1.0068827 0.71570694 0.6568949 -0.50738484 0.19934693 0.99932367 -0.18426847 -0.028534252 -0.30252978 0.13435988 0.5774216 0.9887069 0.8419283 -0.7674453 1.0334702 0.12445397 -0.37423277 0.48090935 -0.322392 0.24591479 -0.3935979 0.49697024 0.54573995 -0.71504647 -0.2738715 -0.2123298 0.7799972 -0.1821667 -0.29939094 -0.6567735 0.7676336 -0.8784788
645 -0.37526625 0.16343395 0.70237345 0.8981761 -0.20109959 -0.81597406 -0.14103349 0.48950884 0.2563284 -0.5382076 -0.18379115 -0.53830516 -0.7505901 -0.18488209 -0.17992143 -0.15195715 -0.8377881 -0.14743008 0.261621 -0.084335886 0.7024807 0.35551238 -0.31318638 0.031793058 -0.08722313 -0.22939704 -0.6077053 0.5189241 0.12356856 0.022042532 -0.36403775 0.21898046 -0.04766416 0.16062711 -0.7410163 0.17878918 -0.103996426 -0.15097544 0.1210096 0.240182 0.23562334 -0.54859006 0.038792677 -0.40374443 0.39481056 -1.3892862 -0.7071022 0.16800281 -0.3518977 -0.185412 -0.97222066 0.34785408 0.10387664 0.23352507 0.55758566 -0.5690267 -0.5370585 0.68450654 -0.31359684 0.4551869 -1.2269335 0.0047065327 0.238715 -0.63231236
565 0.54553 -0.6943189 0.133915 -0.45136058 0.7195418 -0.2550494 -0.39455414 0.68007845 -0.13822523 0.39962107 -0.52358097 1.2748331 -0.66203684 -0.63125956 -0.27556458 0.4491018 0.3564313 0.18252485 0.48024127 -0.74502915 0.76874775 0.24221097 -0.27913064 0.19096711 0.5836037 -0.066379905 0.32333598 0.8340073 0.27741572 -0.7676356 -0.74858725 0.5965581 -0.55266386 -0.623217 -0.32097334 -0.64352876 0.6730268 -0.78044605 -0.40196785 -0.086223856 -0.052127197 -0.7671315 -0.027751382 0.53559387 -0.67789406 -0.47733262 -0.48691773 0.053569574 0.17081912 0.0886576 0.10019653 0.7445578 0.7301723 0.8946995 0.5862866 0.21452624 0.5066964 -0.32839727 -0.2826912 0.46904874 -0.3184774 -0.093017936 0.21340017 -0.10844876
1655 -0.045316376 -0.5061338 -0.33995968 -0.12318573 0.45554444 -0.06422969 0.3033493 0.5139361 0.21976541 0.7858292 0.4856558 -0.28125885 0.2354009 -0.22007498 -0.07634924 0.34020886 0.19855393 0.23226258 0.09513909 -0.062218953 1.2442322 0.46532273 -0.019013874 -0.3635606 0.8517264 -0.12767963 -0.016504405 0.44834793 -0.66135406 0.18181722 -0.33308533 0.16460185 -0.056997318 -0.5512034 0.4539617 0.1791792 0.15837237 -0.5542861 0.002106906 -0.6713652 -0.9582183 0.39206874 0.31654382 -0.4003568 -0.12091196 -0.2671838 -0.0010209831 -0.17314295 -0.25047758 -0.9858372 0.4067676 0.1693019 0.016134486 -0.2825918 -0.48091882 0.15174875 -0.3658844 -0.270203 0.8024127 0.0032310958 -1.0547581 -0.2411595 0.46758837 0.3177874
2130 0.6488064 0.15011717 0.13164541 -0.58156997 -0.10534987 -0.36555243 -0.30167767 -0.23783655 -0.46528104 1.4343079 -0.21828493 0.5141715 0.24453592 -0.35368922 -0.38642535 -0.7235387 0.21718551 0.16961004 -1.0178577 0.34775904 1.1640824 0.79668665 -0.4411984 0.12376659 -0.23091115 0.46367824 -0.1273827 0.7724423 -0.41358215 -0.5462174 -0.46052948 -0.1003393 -0.6263333 -0.62564087 0.5265469 -0.5045695 0.13649505 1.1692276 0.5326005 0.32086003 -0.543727 -0.7043096 0.28356797 -0.5530217 0.27347273 -0.39172134 0.6390024 0.48565236 0.2102983 -0.65317094 -0.6032466 -0.0072415504 0.42062086 0.62092185 -0.18975225 -0.16467345 0.24660613 0.6652262 -0.032066714 -0.6617598 -0.56900936 -0.958914 0.11857368 -0.024714952
73 0.6123532 0.31993338 0.41242787 0.19939993 -0.15382516 -0.28659546 0.21893413 0.2728115 0.70704806 0.20510882 -0.59781396 0.26439685 -0.77051854 -1.0957599 0.11547234 0.5658778 -0.077565424 0.19927023 0.36748227 -0.031952646 0.62186974 0.6638538 0.34123084 0.22105527 -0.33852795 -0.25365496 -0.31938133 0.6711427 -0.102179855 -1.0625548 0.28568482 0.35877752 -0.06172304 -0.65402085 0.22236358 0.022497635 0.84375256 -0.7759675 -0.3906619 -0.6724601 0.7228959 -0.055957504 0.14876176 0.12784833 -0.493662 -0.66680723 -0.21887621 -0.06402722 0.029563837 -0.07076948 -0.18735653 0.09339031 0.09162738 0.13542935 0.68994564 -0.53887904 0.17541021 0.04690296 -0.23911583 0.3425448 -0.075371884 -0.06824495 0.018184481 -0.3519359
279 -0.18870018 -0.5489305 0.29252875 0.8243905 0.9051323 -0.856212 -0.6142944 0.07643672 -0.30193183 0.3759269 0.03989125 -0.7857622 -0.6021404 -0.5017539 -0.4286226 1.0306776 0.122581005 0.077395625 0.12601407 0.65036637 1.5220002 0.16241153 -0.5140296 0.22576526 -0.45537528 0.53762007 -0.487849 -0.13800511 -0.27366492 -0.08411299 -0.8213529 -0.24809498 -0.04093 -0.57402873 -0.0031911624 0.07846744 -0.8001107 -0.3203579 0.022093628 -0.5335375 0.09350255 0.20906486 -0.97910595 0.75996363 -0.27316839 -0.6008227 -0.71399325 -0.64478636 -0.09578403 -0.73010445 0.36908484 0.18763001 0.0739211 -0.57264185 -0.3150674 0.2383942 -1.058639 0.5095681 0.47391376 -0.04948057 -0.2510816 -0.7622221 -0.014466453 0.23120785
94 -0.12491281 -0.321999 -0.24548541 -0.4002542 0.8368855 -0.9055947 -0.79455674 0.4948621 -0.75890166 0.16505104 -0.17254329 1.0166993 -0.13257717 -0.0023509178 -0.0074682115 -0.26639545 0.7387461 -0.33686614 0.79011685 0.6889966 0.46506867 -0.2540023 0.37093505 -0.6362916 -0.521339 -1.3968625 -0.09124768 0.51695675 0.010622814 0.4494454 -0.02924768 -0.588983 -0.49961248 0.59122354 0.11432567 0.61396873 0.17891742 0.27757946 0.22724499 -0.61179096 0.028557684 0.12623775 0.06319271 1.1394604 0.74406874 -0.27447557 1.0060277 0.055878155 -0.7677567 -0.060040172 0.40880907 0.7574147 0.1791667 0.14473371 -0.34770238 0.0346538 -0.6107831 -0.4744874 0.10272726 0.26585263 0.09080681 -0.711815 0.41003343 -0.48488626
734 0.020628765 0.32130843 0.47940162 -0.39324674 1.1999398 -0.7565132 -0.19858488 0.76043147 0.09907672 0.11375581 1.0647548 0.11340143 0.18659063 -0.93753403 0.23368104 -0.8599028 -0.4806577 -0.35207364 -0.40290484 0.68399936 0.29467496 0.6313673 0.59481716 -0.17136067 -0.4301823 0.2539242 0.60957676 0.29168412 0.11491352 -1.2281808 0.54017925 0.3712425 -1.274374 0.48097888 0.534263 0.08247499 -0.29208767 -0.024324752 -0.35327938 -0.024055121 -0.100383654 0.2562243 -0.026829522 0.32349685 0.05901609 -0.8610377 -0.821518 -0.6247599 -0.38949782 -0.8233354 -0.84498614 -0.040622078 0.34254795 0.88791054 0.0098330695 0.7128433 -0.05639956 -0.6545661 0.6297458 0.46846947 -1.0627397 -0.41389367 -0.6287363 0.792312
657 0.4744817 -0.7003964 -0.39317757 -0.41753334 -0.20616016 -0.9154377 0.11920209 -0.05447792 -0.24677928 0.07470609 0.28395337 0.7389354 -0.22653559 -0.8541846 -0.025628129 1.0053487 0.1454559 -0.37087417 0.8652109 -0.1527792 0.29432666 -0.035882257 0.008512141 0.8678789 -0.73531944 -0.09457026 0.21870703 0.37066656 0.8305525 -1.5277956 -0.5960907 0.6042114 0.20568499 -0.63035375 -0.4775804 -0.1400893 0.31417975 -0.12411339 -0.17574067 0.1008209 -0.23360428 -0.2317713 0.52160156 0.0740983 -0.26900706 -1.0034763 -0.72537506 -0.09478944 -0.48257384 -0.10277804 0.6433339 -0.066629164 0.41701335 0.3966842 0.1877921 -0.44177207 0.1528785 0.12916334 0.09808941 0.17307986 -0.40815914 -0.9752098 0.5904698 0.1847481
833 -0.31113288 0.7695516 -0.2498369 -0.22216828 0.2711497 -1.2158338 -0.77281964 -1.3327456 -0.37246692 0.73505396 0.20506966 -0.64495975 -1.3716391 -0.15611975 -1.9037608 -0.21011785 -0.784618 -0.08677318 0.025352446 0.62369245 1.0180224 0.5065898 0.059893947 -1.5497336 -0.4209233 -1.0764287 -0.024788832 0.39472356 0.27767614 -0.35547695 -0.42692944 0.424848 -0.6714271 -0.97822565 0.5963627 -1.492338 0.6751312 0.90914756 0.40870425 -0.11457291 -0.1120537 1.0126393 -0.39969704 1.1067051 0.7362267 0.58219004 0.77885765 0.18468708 0.06763393 0.92266023 -0.897093 0.46425077 -0.15105353 -0.42025703 0.41796795 -0.035559006 0.53159076 -0.34593138 0.09537077 0.0076747043 -0.09222244 -0.97845525 0.6542179 -0.20232679
2450 0.3617575 -0.021807296 -0.0059371614 -0.43405247 0.16190578 -0.6340878 0.40823615 0.35995272 0.5797366 0.2171133 -0.5290901 -0.042182636 -0.13368434 -0.8349909 -0.7255856 -0.00517723 -0.41964918 0.40838525 0.059847306 -0.10374451 0.9657372 0.4066471 0.32229486 -0.20133749 -0.70200086 0.5071555 0.15325706 -0.1514752 -0.25239962 -0.12206251 0.7372667 -0.17605059 -0.103788346 0.4521977 -0.6445692 -0.71585697 0.5159489 -1.2276651 0.5231643 0.2877375 0.28548628 0.37218142 0.29956406 1.3329785 0.3081981 -0.78955173 -0.18627252 -0.3344057 -0.2229564 0.79256994 -0.7611075 0.36488295 0.559958 -0.0961183 -0.25806975 -0.0011289055 0.19989972 0.19971049 -0.2041115 -0.23129128 -0.8406391 0.31686044 0.5670362 -0.57205474
2359 0.12919904 -0.24615136 0.08472824 0.037952285 0.4877624 -0.59667623 -0.048127867 0.0066141547 0.36761242 0.070470385 -0.99948597 -0.093640596 -0.8362321 -1.6496041 -0.100885294 0.3587185 0.06736216 0.5668583 0.24647462 0.11493298 0.519072 0.6291688 0.38892102 -0.11794704 0.26133102 0.23556365 0.7081442 0.751803 0.22602062 -0.49330914 -0.15126735 0.41969794 -0.09326389 -0.41284454 0.35403973 0.022976069 0.8396821 -0.6191679 -1.1232266 -0.12258924 0.5092077 0.2889564 -0.32482284 -0.17755297 -0.2764482 -0.22248614 -0.006558645 0.1641069 0.22615951 0.050803438 -0.31497112 -0.124944314 0.005937769 0.11031732 0.9794007 -0.47582746 0.23018968 0.053331267 0.7091211 0.22551149 0.4026158 -0.09826088 0.34211993 -0.39583868
2238 -0.52400655 -0.64280576 -0.30184373 -0.020946916 0.45145363 0.16720916 -0.34418342 -0.53534615 -0.46860173 -0.45025688 0.052678626 -0.6851466 -0.32006478 -0.58859974 0.776301 0.39254364 -0.110205285 -0.31337857 0.10897267 0.028871953 0.93038195 0.5981398 0.3004744 -0.053617638 -1.0449995 0.94201595 0.022863755 1.1850487 -0.00034249158 0.4926636 -0.031826522 -0.32825112 -0.40922907 -0.1364986 0.44351363 -1.3937236 -0.39448312 -0.008471427 -0.64030707 -0.43236342 -6.626964e-05 -0.022184893 0.7371965 0.55173635 0.7492265 0.30968717 0.9918676 0.46182796 -0.8858169 0.15413211 0.021019392 0.24184497 -0.35781533 0.39921102 0.22324069 -0.40108952 -0.6349557 -0.4753669 0.42015833 0.14741194 -0.40267012 0.2168837 0.22754261 -0.81094426
519 -0.15262866 -0.28742602 -0.07118074 -0.26467785 -0.29745087 -0.6481685 -0.7344686 -0.4386757 -0.11633479 0.09428259 0.29911515 -0.5323738 0.06301424 -0.7522081 0.05557901 -0.15146126 -0.271896 0.42224318 -0.043874506 -0.27367747 0.5019174 0.13903598 0.30165115 -0.7215809 0.19558308 0.441394 0.4461124 0.070562676 -0.7528615 -0.12378262 0.0010791641 0.24182217 0.87509674 -0.05865031 0.06509173 0.38887402 -0.32016414 0.17430592 0.017361706 -0.45303145 -0.09095328 0.13576111 0.22048974 0.3054275 0.08549126 0.0037808227 0.22621268 0.109010644 -0.2668364 0.2918653 -0.09760745 0.23116039 0.3181317 0.08881132 0.5627282 -0.19490965 0.3144077 -0.09015782 -0.059194252 0.15758996 -0.6889153 -0.7048189 -0.68964344 0.15561727
154 0.104138665 0.3286062 -0.21421763 0.19540755 0.16450532 -0.21846233 -0.093398206 0.12636913 -0.03459666 0.4734975 0.40909475 -0.16079736 -0.29467666 -0.51341605 -0.65429914 0.12868546 0.56729835 0.20584697 0.5077938 0.4336294 0.5648778 -0.17388736 0.47450748 -0.13114767 -0.954583 -0.5736507 -0.18975559 -0.08226094 0.19579826 -0.74826664 0.70549613 0.43843722 0.22711155 -0.76747686 -0.30859515 -0.34239092 0.64274305 -0.06162559 -0.43739036 -0.42080906 -0.43652162 0.21254288 0.06670988 0.3224656 0.20268442 -0.8786661 -0.4874178 0.111681245 -0.86324155 0.106308736 -0.6701106 -0.45438594 0.031230895 0.6305527 0.6522122 0.10936532 0.22177942 0.4237401 -0.038507644 0.44440037 -0.5732934 -0.25281212 0.711542 -0.24761565
441 -0.036259104 0.18362337 0.8955014 -0.7642535 -0.447659 -1.1463867 -0.46155092 -0.34035957 -0.40450063 0.2648109 0.14740159 -0.2946752 0.60650474 -0.089515194 -1.3587857 -0.3487478 0.16021052 0.5299431 0.2657486 0.7208426 0.017785842 0.88578004 -0.12599185 -0.34170842 -0.20341794 0.3853946 0.03783132 -0.48646012 -0.79670644 -0.010255608 -0.4086716 0.21523115 -0.81665456 0.16947526 0.24948804 0.5227545 0.076216154 -1.121315 -0.77335125 0.058659997 0.10831989 0.3989048 0.5461763 -0.34653386 0.11208781 -0.27181673 -0.15477304 0.029653171 -0.9990219 0.40944782 0.4270985 -0.40984693 0.95546424 0.77747834 0.39945546 -0.088992044 -0.08779581 0.80813473 0.4916211 0.32903877 -0.46589923 0.55866313 0.29997772 -0.19780694
1154 0.080352455 -0.35246578 -0.5924283 -0.5001799 -0.19441752 -0.7284082 0.20548151 0.22540748 0.16772598 -0.30805796 -0.41129678 0.18408018 -0.68094283 -0.015230868 0.15305695 0.6796553 0.67771786 0.17907298 0.9399361 -0.109393805 0.56132257 0.31794864 -0.10710761 0.6996098 -0.50008404 -0.23452018 0.29883194 0.3974875 0.17255034 -0.4805266 0.16469897 0.85215706 -0.097784385 -0.30877447 -0.14590003 -0.2310435 0.6939632 -0.7881514 0.18981788 -0.16402084 -0.13379042 0.77856755 -0.2860226 0.11653123 0.0010239019 -0.04155833 -0.46770918 -0.012768208 -0.19993594 0.28450525 0.24659662 0.49102312 0.1850058 0.80074966 0.35377067 0.030738957 0.6963282 0.04233865 -0.6365217 0.36440673 -0.8776577 -0.40396294 0.6894417 0.3142402
218 0.1354221 -0.48983416 0.37922537 -0.30157506 -0.19472954 -0.79401904 -0.70426583 -0.06550902 -0.47444868 0.4536136 0.44097957 -0.052187316 -0.48495042 0.037861697 0.13855648 -0.39989388 -0.4851851 0.3432213 0.26941818 0.17802115 1.0050387 -0.6652186 0.19106701 -0.68637496 -0.026766876 -0.044079017 -0.20636335 -0.20323457 -0.118727 -0.69090736 -0.05727152 -0.3349954 -0.19361801 0.14056328 0.15361886 0.10286733 -0.25556436 0.6045572 0.58294535 0.5519908 0.31493595 0.5722686 -0.29579356 0.028239563 -0.0008441328 0.06639656 0.036708105 0.24416365 -0.21957688 -0.70764214 0.79032993 0.9108966 0.21112931 0.4414885 0.32184246 -0.5157169 0.13030048 -0.119528756 -0.3324147 -0.54175156 -0.44931802 0.66267246 0.81957674 -0.46664825
55 -0.18252072 -0.18434569 0.6190511 -0.32011956 0.93435603 -0.3692942 -0.32328904 -0.13554734 0.32274815 0.22730947 -0.11202546 -0.5378948 0.12292391 0.28977332 -0.16686964 -0.11317213 0.040309396 -1.1419828 -0.25951958 0.64667386 -0.003026232 0.072300635 -0.043802902 0.1303324 -0.07922081 -0.02269861 -0.64968085 1.0499508 -0.882543 0.35440525 0.615013 0.5786154 -0.13146003 0.23620199 0.45081416 -0.34009337 0.38148713 -0.5831397 -0.09225098 0.22871283 -0.36606038 0.7203475 -0.0032593068 0.25044653 -0.176067 -1.3869672 0.6460776 -0.22421388 0.18932515 -0.895443 0.21331038 -0.13127622 0.36766878 0.06723772 -0.02501662 -0.0318346 -0.14197898 -0.27313814 -0.2667136 -0.39007896 -0.51609546 -0.670208 0.66357666 0.45042664
454 0.8106495 0.059849676 0.35848427 -0.12587109 -0.28379962 -1.1357309 -0.3275083 -0.32955682 0.16325869 0.037759714 0.33955994 -0.113384984 0.39992973 0.2920997 -0.6425983 -0.36176363 0.12720588 0.2573517 0.44325292 0.28278682 0.11771777 0.93943185 0.03582616 -0.038755275 -0.07780879 0.25292093 -0.15550162 -0.028564177 -1.0138661 -0.55262595 -0.40984315 0.0039001086 -0.4864009 -0.0030579902 0.53007257 0.022086209 -0.5498599 -0.7665188 -0.6852552 -0.31932673 -0.43588603 -0.18668231 0.052299492 0.41816965 0.53136486 -0.5941214 -0.45221943 0.40454444 -0.58990675 0.51996344 0.35891598 -0.22589718 0.23960957 -0.21210903 0.107327454 0.20233198 -0.2687659 0.29099196 0.39039364 0.015254566 -0.45497876 -0.068325475 0.22117947 0.016115114
748 -0.30015627 0.17602213 0.2264287 -0.31240875 -0.16676778 -1.050125 0.30616665 0.07486639 0.5214914 0.0011636387 0.1930745 -0.24060336 -0.5529617 0.22954091 0.12610644 0.2896672 0.29908088 0.13333435 0.9418329 0.33539504 0.7870825 -0.1686295 0.9927143 -0.64798987 -0.5454212 -0.63928837 0.1634768 0.43806887 -0.051574394 -0.3094127 0.10637252 0.923559 0.15948178 0.09518456 -0.62608737 -0.3235926 0.6431116 -0.54238755 -0.15935653 -0.08938831 -0.73041475 -0.16477357 0.033015866 0.48957947 -0.22181365 -0.6510134 -0.5533127 0.4284817 0.20345713 -0.6009771 -0.5473679 0.32246974 -0.32068044 0.24092633 0.09364648 0.24115029 0.2787861 0.54440606 0.3975164 0.22056423 -0.13934115 0.025175603 0.06959217 -0.07439851
2451 0.47032157 0.16890596 -0.50345033 0.18000746 -0.9899262 -0.80279344 0.1492931 0.565841 0.28418085 0.76337796 -0.21407774 0.6829969 -0.47637805 -0.609992 0.37495595 -0.32466018 0.6272632 0.046327736 0.051778816 0.37919736 0.5579033 -0.71284664 8.043748e-06 -0.21692011 -0.40494007 0.16980897 -0.33222765 1.1722547 0.7325883 -0.64819264 0.05763347 0.4767022 0.17708063 -0.2597434 -0.3759253 -0.8083885 0.47234347 -0.22623727 -0.14446655 -0.39110386 0.6365675 1.1398143 0.66738355 0.07812285 -0.1732454 -0.86603165 0.20897496 -0.6805333 -0.9263247 0.4475033 -0.7380824 0.46607164 -0.35674348 0.008845044 -0.10881655 -0.4749105 0.2930149 0.4625364 -0.42709637 0.4413966 -0.08889838 -0.8335905 0.62395984 0.2818074
2383 -0.016349312 -0.51011586 -0.73873395 -0.44015032 -0.29591164 -0.55733144 -0.88441795 0.19175066 0.8735613 1.0103661 -0.10910221 -0.3190751 0.14308488 0.15777555 0.9391224 0.28203723 0.5517042 -0.36311886 -0.18811566 0.38669443 1.0193073 0.40632147 -1.4131582 -0.5138008 -0.18294537 0.82601345 -0.06471541 0.8573819 0.16550505 -0.40005544 -0.2834286 -0.19604255 -0.540824 0.7296523 0.047586758 -0.115127996 -0.038917813 0.06675604 -0.6778359 -1.2249523 0.59914964 0.47322303 0.55088854 0.065973386 0.8582121 -0.07977823 0.09942149 0.3252878 -0.73322237 0.0031485164 0.029435884 -0.108128235 0.67907757 0.21169637 0.43007004 -0.031927098 -0.68463606 -0.4992471 -1.0515568 0.3451939 0.016364262 1.0258436 1.1447271 -0.21026573
1776 0.67411655 0.13377725 0.06828086 -0.14236847 0.19037804 -0.43948814 0.26286525 -0.24809603 0.14275406 0.26432145 0.20816652 -0.5522146 0.4717469 -0.03875096 -0.14233825 0.080776244 -0.12833214 0.3242353 -0.22312249 0.18231428 0.47221398 0.13652381 0.27969664 -0.4743819 -0.32349634 0.12144534 -0.12001938 0.8724185 -0.2299757 -0.7611053 -0.031961806 0.9421422 0.8306669 -0.11671996 -0.14611883 0.11610202 0.38779786 -0.021425433 0.11248417 -0.6784048 0.74641573 -0.026512397 0.08627173 1.4120195 -0.23771198 -0.36436424 -0.050099365 -0.26182613 -0.46539485 0.035245854 -0.38556114 0.14250006 0.40761846 -0.59649146 0.18139711 -0.063970305 0.8118208 0.36666593 -0.76583827 -0.61848456 -0.73999983 -0.32177278 0.537886 0.06911257
1171 -0.626774 -0.6956464 0.1563006 -0.5282217 0.4192153 -0.17669414 0.060695034 0.05943678 0.33531997 0.46893385 -0.32186744 0.2100963 -0.7664844 -1.0374316 0.34035644 0.05407694 -0.012577576 0.753517 -0.16931607 0.30816582 0.55428094 0.22700588 0.31955862 -0.107120395 0.27217624 0.20406924 0.11380352 0.5424069 0.4087134 -0.0027871032 -0.11013175 -0.045307502 0.08539119 -0.117071725 -0.14446688 0.19522925 0.17711397 -0.09801211 -0.83804536 -0.73327076 -0.028885342 0.45314956 -1.2132356 -0.6028751 0.13809791 -0.78957605 0.032253567 -0.39599162 0.060839698 0.5566888 0.09103575 0.29135212 0.8214566 -0.3571883 0.4420509 -0.48010144 0.632358 0.16212763 0.8328402 -0.32843843 0.16484131 -0.23622924 0.07408835 -0.1514018
756 -0.25234395 -0.33249593 -0.3787802 0.04719223 0.71515536 -0.82330585 -0.3825099 0.44531322 0.25897852 0.2406125 0.40765318 -1.0235295 -0.39848742 -0.5879376 -0.44250697 -0.23441222 1.6044757 -0.22331466 -0.25882226 1.8128821 0.13378452 0.19690554 0.5962958 -0.47930488 0.099678636 -0.06585178 -1.0184518 1.4645538 0.8734353 0.0940843 -0.64345753 -0.089546174 -0.612774 -0.4635181 0.51491284 -0.24177194 0.177777 0.078893684 0.70749074 -0.094358616 0.8460205 0.6049962 0.6404811 -0.015025827 -0.1428232 -0.23090349 -0.117638886 -0.498074 0.26649773 -0.050018355 0.7444753 1.1435683 0.26283634 0.43835542 0.051860847 0.07910295 -0.23868059 -0.9009948 -0.0015511933 -0.31204474 -0.95860165 0.7546663 -0.7442548 -0.13684304
735 -0.035647295 0.121464774 0.18973507 -1.206736 -0.19178092 -2.1531913 -0.6180886 0.869477 0.5196302 1.2694786 0.18428273 -0.047354087 -0.7309828 0.115267456 -0.87789136 0.6813873 -0.3867903 -0.6415407 -0.39311862 1.4771723 -0.35004777 -0.61782295 -0.39620078 0.74068046 -0.26359552 0.28934583 -0.07883968 0.29421008 -0.40340033 -0.18586688 0.36561033 0.44291124 -0.9666648 0.3591467 1.093782 -0.057991575 0.19643703 -1.113066 -0.47050554 -0.2057141 0.66694224 0.4135624 0.067054495 -0.9253608 0.95616055 0.2299931 0.124837965 0.7323675 -0.6410754 0.94486123 0.85635495 0.29963854 0.15869546 -0.14715415 1.2151725 -1.1740086 -0.7433459 1.5941983 0.81386256 1.3399222 -0.9762202 -0.077768974 0.14397068 -0.66870093
2122 -0.9045078 -0.1147729 -0.106152065 -0.33743602 0.48984998 -0.63357514 0.117965385 -0.6893167 -0.31158945 0.67858523 -0.036770143 -0.25926858 -0.35985038 -0.61837727 0.45160472 -0.16809404 -0.2735592 -0.6554863 0.24304914 0.35829887 1.3196886 0.29375923 -0.81979024 -0.31260353 -0.5711381 0.82725775 -0.09185885 0.5800212 -0.3185323 -0.33567935 -0.112366036 0.77985716 -0.34199852 -0.25130528 0.0079825735 -0.20850365 -0.91905004 0.8861569 -0.21216427 -0.9867768 1.2804235 -0.27974454 0.49162877 0.012019327 0.039366115 -0.016097767 -0.028358927 0.50625813 0.378501 0.17099269 0.20946978 -0.65565836 0.22406591 0.50806373 0.23462406 -0.22188082 0.04172932 -0.8676294 -0.49109507 0.0039960956 -0.19204159 0.47718525 1.0870532 -0.49472767
1317 -0.05729658 0.3557914 -0.73923165 0.014499586 -0.017265398 0.11295586 0.05779413 0.11362186 -0.49190816 0.003581649 0.13096902 -0.76397026 -0.46050176 -0.009922547 -0.5808201 0.43314895 -0.04951209 0.23196031 0.32478017 0.4354395 0.82787925 -0.2016799 -0.27225533 0.12927303 -0.7919685 -0.9361932 0.4389925 0.5246899 0.3018939 -0.72042066 0.5331817 0.97469455 0.16281775 0.057311583 -0.39190617 -0.75815696 0.7344349 -0.18332884 0.09122556 -0.99878377 -0.10678809 0.64912254 -0.2832087 0.6020656 0.010518841 -1.01228 -1.1742818 0.15882578 -0.4127101 0.48210195 -0.25578362 0.30637008 0.5090487 1.0324755 0.2280112 -0.46993732 0.4281768 -0.43997103 0.8686407 0.6627159 -0.33138818 -0.45801893 0.39864308 -0.36526537
1952 0.55598575 0.5501268 -0.32885164 0.23347849 1.2086633 -0.12829666 0.051568363 -0.6758916 -0.37159035 1.4594148 0.10618435 -0.15315598 -0.14804487 -0.21940766 -0.69984525 -0.57587373 -0.42362133 -1.1190156 0.6752949 0.6777299 1.111571 1.122199 0.18033671 -0.34228942 0.19341491 -0.24190128 0.95291466 0.5647548 -0.53628016 0.5441325 0.17959946 -0.0127487425 -0.9549527 0.44493517 -1.5168024 -0.04602259 -0.4567597 0.55070496 1.1389998 0.0034145091 -0.57760376 0.58674294 0.3305659 -0.3254639 -0.5678653 -0.37438688 0.75818294 -0.05771705 -0.5737168 -0.51786727 -0.5218529 -0.3207305 0.5391943 -0.18295799 0.9314004 -0.6519454 -0.51547533 0.3078321 0.28020692 0.12340098 0.2867777 -1.1469501 0.4157734 0.37346044
1902 0.32780293 0.2786198 0.7567164 0.89914566 -0.2890264 -0.4908632 0.5583131 -0.122346826 0.8534537 -0.16938794 -0.20090917 -0.6992425 -0.43282872 -0.18074854 -0.603967 1.2350872 0.46800804 0.6567008 0.23470996 -0.4548241 0.5011732 0.2341682 -0.14528857 -0.20932807 0.24429816 0.105367534 -0.24173151 1.0060252 0.557346 -0.2789487 -0.3020977 0.8149601 -0.7483367 0.63633496 -0.9107473 -0.26763552 -0.45164388 -0.4054811 0.8437987 0.110370204 -0.13648288 -0.1664642 -0.17025097 0.010709726 0.91739994 -0.83142555 0.44231775 -0.07783097 -0.7987302 -0.21930479 -0.12033354 -0.18413426 0.7725782 0.18353938 -0.6152036 -1.6796074 -0.32770023 0.45351893 -0.025946753 1.1580175 -0.9944416 -0.97959656 -0.20449351 0.42330998
364 0.368292 0.44688934 -0.07768949 0.2758255 -0.22106555 -0.08125286 -0.17527516 0.26026958 -0.059154015 -0.047441162 0.047221288 -0.7624623 -0.34243226 -0.56134665 -0.36166373 -0.09299768 0.24830964 0.13288201 0.42645597 0.46580273 0.9583974 -0.38950446 0.54417944 -0.35437575 -1.2861524 -0.030076468 -0.20282853 0.19615853 0.3891832 -0.5555722 0.28395173 0.30062294 -0.0299178 -0.75459415 -0.7061807 -0.8773469 0.9078601 -0.2815245 -0.21689159 -0.06374953 -0.70096976 0.2186423 -0.026868109 -0.008317633 -0.48512298 -1.0521007 -0.27923068 0.41781685 -0.29782438 0.7200546 -0.21263991 -0.74291044 0.29464275 0.42513812 0.6983583 0.08071571 0.48265597 -0.4169062 0.34129396 1.0087966 -0.6055884 -0.39422694 0.39238784 0.008356467
487 0.51991135 -0.22842501 0.5349398 -0.26241812 0.6139155 -0.3735927 -0.6161763 0.34962022 0.111568786 0.8171592 0.068127096 -0.09101677 0.044392508 -0.27356791 0.23825751 -0.011620549 0.17117622 0.080737814 0.168999 -0.113348454 0.25813034 0.17224638 0.05975613 -0.79508895 0.3425995 1.0671126 -0.2996089 0.5387245 -0.23057991 -0.79418653 -0.35522118 0.65794593 0.3664381 0.27525494 -0.76924485 0.41837958 -0.33109578 -0.22756433 -0.19076954 -0.037583258 0.05854013 -0.12765865 0.3919947 1.0270945 0.47130382 -0.30354357 0.28665867 -0.2482499 -0.5062806 0.845431 0.001852644 -0.0043490785 -0.109367974 -0.5877481 0.96387273 -0.27777648 0.22423495 -0.09486841 0.1428872 0.012246342 -0.55784124 -0.11612617 0.15232326 0.6360272
505 0.7364934 0.22097585 -0.23525336 -0.16888334 0.09815014 -0.90201545 -0.16060907 -0.46651334 0.56770724 0.32253084 0.6180876 -0.5405708 -1.0443547 0.3422252 0.066436306 -0.016893407 0.6560683 0.50578374 -0.63279825 0.28906918 0.5831379 0.54348457 0.30917254 -0.013621468 -0.30703294 0.06938329 0.49976218 -0.051911972 -0.28498402 -0.07766198 0.26547816 1.1582413 -0.15152161 -0.58647066 -0.49680582 -0.059813913 -0.3031113 0.5579072 -0.45465985 0.7027301 0.5982539 0.85339206 0.7810817 0.1910476 0.23905124 0.08834844 0.31921503 -0.7053537 -0.45229536 0.40143603 0.082148366 0.50875586 -0.10295244 -0.3479271 0.73456144 -0.1976828 0.07969028 -0.0997658 -0.18616913 0.7359914 -0.028590769 0.096694715 0.31024593 0.83098453
48 0.25364488 0.035775762 -0.2743786 0.10079008 1.19871 0.08887194 -0.72059464 -0.5859193 -0.41264787 1.4066796 -0.73723733 -0.24209099 -0.33999604 -0.69853395 -0.40157807 -0.18697113 -0.2995806 -0.9079617 0.7151188 0.5511706 1.0732844 0.6097 0.4096026 -0.16604334 0.28070754 -0.6025779 1.1129572 0.91985005 -0.2738146 0.44957188 0.7135519 -0.11711909 -0.21064618 -0.3439469 -0.72626853 -0.074405506 -1.004237 -0.19545916 0.7405983 0.068531625 -0.42495853 0.17448841 0.6821387 -0.6639385 0.037457466 0.0468965 0.43483567 -0.17007643 -0.31130752 0.2158074 -0.1948898 0.05353582 0.5765773 0.49598885 0.99554497 0.6342516 -0.22974612 0.3031592 -0.26932526 -0.08168032 0.192823 -0.64391595 0.021115566 0.1286967
210 -0.64564496 -1.0250304 0.20289318 -0.4705412 0.16618058 -0.5872001 0.33524144 0.14827918 0.026118923 0.5492941 0.3772642 -0.08791317 0.034752723 0.31683537 -0.35439798 0.39285588 -0.22701927 -0.26174697 -0.18812379 0.43693212 -0.033730835 0.07251293 0.30686548 -0.025756663 -0.21998887 0.285788 -0.6024398 1.1536474 -1.1329786 0.18168955 0.4354157 -0.0810273 -0.8014716 0.23748434 0.5061117 -0.7815443 -0.17633262 -0.07838366 -0.13739826 0.19358543 -0.45196426 0.6571016 0.0028770734 0.45109606 -0.14700903 -1.0568295 1.3034339 0.39079446 0.4618183 -0.7531742 0.05654967 -0.395595 -0.00072900776 0.35026088 -0.1220302 -0.05279453 -0.123569824 -0.19875984 -0.22536583 0.026899694 -0.57707924 -0.29651943 0.2772338 0.7097473
2160 0.42628092 0.012336109 -0.42769566 0.44658348 -0.93040377 -0.37634853 0.90767175 0.5590453 0.22832401 0.6954938 -0.7286864 -0.55383575 -2.1463354 -0.69654626 -1.0885981 -2.6455905 0.517708 0.07058002 1.3570427 -0.036980875 1.1074901 0.26392525 -0.5884833 -0.5637061 -1.0370578 -0.13218726 -0.45613766 1.3834012 -1.2437724 -0.07245655 -0.6413086 0.8994588 -0.83030313 1.3787663 0.50614095 -0.80705804 0.010059457 0.089057446 -0.16749252 -0.83144003 0.42055666 0.48233822 -0.1982822 0.2747569 -0.8556617 -0.34069037 0.40202305 -0.17330892 0.46555847 1.5652449 0.6867989 0.55177796 0.008692448 -0.06966153 0.08677226 0.48990256 -1.7475332 -0.16483004 0.46959916 -1.0753075 -0.7913008 -0.31198025 0.5044008 0.90588224
1583 -0.23514825 -0.8523392 0.4149301 -0.33074665 0.24185398 -0.3526061 0.3341529 0.4200849 -0.5831695 0.41942853 0.428538 -0.5340089 0.47713947 0.12071606 -0.4059565 -0.56493014 0.06385369 -0.19849138 0.75375485 0.31046945 0.5977831 0.37346533 0.6437388 0.14090794 -0.15965782 0.7409644 0.58493704 -0.035930533 0.10119164 -0.49839124 -0.10178428 -0.06532548 0.104815766 -0.10454124 -0.24475189 0.108246386 -0.5091892 -0.6897818 -0.08132669 -0.8864191 -0.4113153 -0.008167584 -0.11590353 -0.54508644 -0.3951095 -0.6020083 0.19009614 -0.20410138 -0.4493494 0.80142814 -0.03965543 0.3090809 0.12313526 0.13043313 -0.09838397 -0.6275469 -0.4193538 -0.48544186 -0.37152475 0.36825696 -0.46582696 -0.34769782 -0.26927686 -0.041718695
736 0.07993068 0.18382849 0.38042584 -0.38591406 0.98543507 -0.89151603 -0.28758928 0.7570082 0.3279581 0.21291146 1.0640255 0.26261452 0.060641505 -0.988209 0.45421827 -0.989986 -0.34219983 -0.2779142 -0.4565588 0.8481715 0.3969617 0.37187222 0.595952 -0.33983412 -0.4449424 0.0035990989 0.5192449 0.19476739 0.076990366 -1.2666308 0.52263063 0.22602713 -1.2428157 0.2607485 0.44695383 0.35655713 -0.2599199 0.3344272 -0.48747975 0.12899452 -0.111978 0.31178007 0.029541869 0.24603066 0.14222483 -0.8428375 -0.93149805 -0.49489418 -0.106610835 -0.8332066 -0.8757917 -0.21437474 0.47488058 0.76358193 0.12204243 0.6166362 -0.16340148 -0.5692296 0.44707838 0.57529455 -1.2722217 -0.6303478 -0.8726208 0.51540303
1912 0.2047736 -0.5533666 0.08767165 -0.7199885 0.7112083 -0.47506353 -0.58123034 -0.5426193 0.2958174 -0.09960948 -0.32411617 -0.40302244 -0.22457048 -0.1638482 -0.72451 -0.28179327 0.36488098 1.1090494 0.21142948 0.8659902 0.5562471 -0.20703 0.30375686 0.01709266 -0.70416707 -0.35179862 0.08051224 -0.11834553 0.6339914 -0.37795326 0.77960503 0.47046793 -0.29456154 0.59805506 0.1769287 0.39292324 -0.7365162 -0.26319245 -0.35476547 0.5071456 -0.49891725 -0.11091573 0.72784406 0.51716876 0.32718468 -0.5246341 0.4688638 -0.40781882 -0.20023912 -0.6854114 0.57647866 0.8580428 -0.55981296 0.19822441 -0.28023 -1.027304 0.0019827485 0.029971763 -0.36560348 -0.47423357 0.14276433 -0.5469643 0.018271802 -0.0057453867
1602 0.2783825 -0.35829127 0.15881188 -0.8006066 0.33347902 -0.81116647 0.0032106503 0.45930058 0.21213712 0.04556213 0.13409509 0.26338872 -0.26324698 -0.61936975 0.35925457 -0.6379385 -0.5295565 -0.51374054 -0.6291674 -0.01483435 0.39881325 0.7364645 0.24288417 -0.4317157 -0.22896163 -0.036254127 -0.020630201 0.8092919 0.5462275 -0.41658485 0.25285578 -0.055908993 -0.81021214 0.59150964 0.10535494 -0.017647453 -0.33940923 -0.2937731 -0.06821522 -0.63305974 -0.42095524 0.79213315 -0.032121606 0.19021 -0.6407646 -0.20885055 -0.9805678 0.6865754 -0.34003013 -0.6982926 -0.17771785 0.0075818133 0.45399815 0.24565321 -0.3842581 0.42427814 -0.72125703 -0.62666065 0.57372224 -0.12791136 -0.8643981 -0.3081512 -0.2511439 0.5369054
456 -0.3967307 -0.45133048 -0.009489715 -0.5026923 0.5865646 -1.0302963 -0.38142505 0.1776876 0.18382436 -0.06540206 -0.39516023 0.23291406 -0.5139501 -0.74452245 0.82533556 -0.7566944 0.83756655 -0.4610174 -0.7584168 0.91536975 0.093515605 0.81751263 -0.079081774 -0.2628394 0.09300493 0.10700981 -0.332912 0.29733282 0.36260435 -0.26233706 0.2692732 0.028745927 -1.1386513 0.541537 0.29607716 -0.16355905 0.12921964 -0.10743112 -0.06597882 0.08580154 0.61848086 0.34027123 0.5225812 0.5653721 -0.4130439 -0.37781602 -0.522637 0.19928245 -0.60322607 -0.5453685 -0.40392646 -0.44750062 0.71037745 0.7371021 0.41067448 0.38878053 0.25421324 -0.030885462 0.4151059 -0.27448794 -0.62414825 -0.3184505 -1.1405841 -0.15327045
180 -0.08922912 -0.55869687 -0.17910357 -0.35551664 0.2596616 -0.2956404 -0.092959665 -0.25314057 -0.3467225 0.88674676 0.2360618 0.13939665 -0.14976867 -0.578341 -0.17492896 -0.55858696 -0.47998327 0.9372329 -0.062291462 0.64627075 1.5932148 0.40004218 0.50612754 -0.11730408 -0.067820005 0.8306611 -0.27299824 0.13943048 -0.26939324 -0.44789198 0.15344752 -0.47322974 -0.40532386 -0.45962277 0.20034382 -0.7502202 -0.1680604 0.7468398 0.6754886 0.53654265 -0.55761355 0.13584654 -0.08995742 -0.31433493 0.4564826 0.45711783 0.5127793 -0.08128925 -0.027891798 -0.6349407 0.6618044 0.8397521 0.440455 0.14905496 0.427135 -0.07583072 0.7063597 0.7536221 -0.16255772 -0.85790557 -0.6804922 -0.08889115 0.5144561 -0.36059332
1702 -0.45672244 -0.46651345 0.09226385 -0.16087209 0.27045867 0.15020955 -0.7640939 0.28980494 -0.95189315 -0.38271704 0.3233884 -0.3767187 -0.5616142 -0.34337592 1.4283657 0.047291897 -0.14747544 -0.18151447 0.64587474 -0.13323034 0.8276139 0.8873169 0.48045352 -0.3222104 -0.91318786 0.2500836 -0.29200923 1.2264689 -0.20586854 0.6035967 -0.11934431 -0.5827953 -0.80442107 0.24413657 0.75205505 -0.945457 0.13446064 0.3337531 -0.61207587 -0.117322795 -0.19356577 0.18317257 0.3477394 0.5873682 0.92133665 -0.27431086 1.2509812 0.07458147 -0.6626075 0.2447671 -0.27500698 0.16824369 -0.6538087 0.19693501 0.6640301 -0.61950326 -0.33775195 0.06538765 0.14706972 -0.018330043 -0.5754783 0.13367908 0.5483735 -1.2197913
702 -0.50102973 -0.17678209 0.34009165 -0.048403412 0.33463165 -1.7473663 -0.76465154 0.4360824 0.4417678 0.8925006 0.27783182 -0.5496585 -0.22489725 1.0339643 0.30914038 0.10522785 0.720084 0.122776374 -0.45311254 0.32715186 1.5250953 -0.27810055 0.6667377 0.79825735 -0.086506 -0.4437108 0.044344828 0.67696583 -0.21364878 0.08380762 -0.37101066 0.120294355 -0.48502383 0.24607144 -1.0259806 0.14647825 -0.088488564 -0.65217006 -0.5589381 -0.3023843 -0.8408853 0.22978857 -0.0100845015 0.2902894 -0.6289506 0.077266045 0.39959347 -0.5349672 0.2573924 -0.1996005 -0.5858151 -0.6104129 0.36420572 0.40611553 -0.526537 -0.51232755 0.90545094 -0.38920572 1.1009107 -0.4936147 -0.2945012 -0.049310092 -0.08521123 -1.1097422
1351 0.09334342 -0.6690741 -0.33767805 -0.654068 0.08630262 -0.88734317 0.56245863 0.26504835 0.23869444 0.43132985 -0.14630517 -0.6773835 -0.46594954 -0.3116672 -0.07766947 0.08775716 1.0829238 -0.5822408 0.111372456 -0.6902118 0.739017 0.82525307 1.0648724 0.45611838 0.17436671 -0.13733688 0.0005180963 0.3701852 -0.6835387 -0.31541398 -1.0442096 -0.9020617 -0.49813223 0.79158795 0.46831146 0.4198121 -0.8194346 -0.23953043 -0.60153806 0.13244903 -0.12468268 0.4199912 -0.14325045 -0.1723013 0.51241785 -1.1118171 -0.30395302 -0.29801336 -0.13908139 -0.5062483 -0.4751918 -0.49742264 0.51908547 -0.44020948 -0.19243582 -0.0609088 0.31066704 -0.32699895 0.12156572 -0.2086849 -0.5523527 -0.58691186 0.41035146 -0.29266402
1869 -0.37409678 0.16442665 -0.7245427 -0.4308271 -0.11717014 0.43185663 0.16027576 -0.30467692 -0.61903363 0.22057365 0.05018841 -0.15277338 0.06921461 0.12883408 -1.3011484 0.23676033 -0.02284269 0.24838102 -0.22125255 0.5868854 0.21124865 0.62365186 0.44066745 -0.07916981 -0.45619792 0.9548715 -0.20521037 0.5081187 -0.2222405 -0.6417212 0.65444773 -0.03450793 0.07849736 0.4538978 0.010751855 -0.1347307 -0.37288332 -0.36111632 0.23520806 -0.49704874 0.39823207 0.2669047 -0.35190454 -0.3225704 0.03921402 -0.4277138 0.7285849 -0.8169872 -0.04532463 -0.28297246 0.6567551 0.29349777 0.06887229 0.36701867 -0.10639191 0.44576332 -0.27793616 -0.0719455 0.18729758 0.4716221 -0.75736463 -0.32827166 0.080519095 -0.2526147
1558 0.8326457 -0.20875004 -0.4586774 -0.25210464 0.26187494 -0.54549354 0.52508056 -0.21275622 -0.03506402 0.6755652 -0.11706979 -0.4415797 -0.18816784 -0.9374773 0.019200852 -0.14376512 -0.95757973 0.4122636 0.75904477 0.34638366 0.2508134 -0.67866313 0.054384805 -0.8269901 -0.37077546 -0.24058478 0.21647958 0.42331955 -0.77871746 -0.6473969 0.20373672 -0.29345378 -0.2918349 0.077614695 -0.031083653 -0.6661595 -1.1634499 0.990791 -0.75450534 0.52577513 0.12790775 0.7448853 0.19654723 -0.05826293 -0.22506106 -0.050159354 0.051672157 0.24613935 -0.8007638 0.30315027 0.6299521 0.5842675 1.139857 -0.072492205 0.10433037 -1.0113727 -0.05918008 -0.52661484 0.2505367 0.30456886 -0.76375264 0.90509653 -0.702677 0.113063425
490 0.27068207 -0.8270292 -0.13748245 0.9097478 0.36724362 -0.21431446 -0.6906506 0.003806031 0.2522596 0.75921744 -0.12931468 -1.0534202 -0.35054573 0.67047644 0.0026017525 -0.363598 0.3055609 0.46394783 -0.005204468 0.51932764 0.81587994 0.34808928 -0.06659494 0.18941027 -0.37688974 -0.1056856 0.34678197 -0.609364 0.35159972 -0.25811085 -0.57961816 0.3536254 0.003136483 0.5254837 -0.030990599 -0.06464347 -0.052805148 -0.93743056 -0.46276882 -0.22510494 -0.27118018 0.6943913 0.5425913 0.45624462 0.07785621 -0.021189453 -0.23001944 0.032113064 -0.22492781 -0.603346 0.17383118 0.4614291 0.53841054 -0.7176121 -0.06396145 -0.3069678 0.20055296 -0.51917243 0.46302277 -0.14483957 -0.5695335 -0.44525263 -0.47629714 -0.41469502
1954 0.62896204 0.53772956 -0.11558197 -0.4675111 0.36979553 -0.4371023 -0.6567281 0.13113724 0.28048724 0.4839792 -0.24914593 -0.85165554 -0.7813921 0.9160485 0.14991026 -0.41586208 -0.8946405 -0.21354888 0.039086923 0.64523315 0.40448743 -0.0437632 -0.548531 0.30385303 -0.17342463 -0.5585074 -0.7107437 0.0073411763 -0.13162608 -1.3705301 -0.49150425 0.38028616 -0.88258994 -0.28134212 0.7519489 -0.32970968 -0.22713663 -0.8232761 -0.6193009 -0.802371 -0.29081446 0.35723543 -0.08901308 -1.1964632 1.0077024 -0.48438123 -0.1913749 0.08664716 -0.23240158 0.77021223 0.29548767 -0.07371474 0.44948545 -0.34302697 0.33313468 -0.89635086 0.571181 1.2277827 0.37636638 0.2649379 -0.7222299 0.4102646 -0.028638292 -0.43543229
1367 0.2762579 -0.10410419 -0.203107 -0.37038 0.11872174 -0.036067218 -1.1707045 0.16444947 -0.36444095 0.3184195 0.7806619 -0.3627 0.2791814 -0.69563025 -0.08915611 0.23468769 0.5863604 -0.10741292 -0.30835184 -0.28302202 0.92174566 -0.04998303 0.47136995 -0.3037566 -0.028413381 0.5848091 -0.157282 0.59488773 0.2154301 -0.8216871 -0.05329049 0.7647428 0.239373 0.7103577 -1.525801 -0.24214183 -0.70688206 -0.0959834 -0.23890497 -0.09632054 0.17253977 0.22299275 0.275017 1.0329188 0.21231405 0.33966723 0.3390602 0.38297582 -0.5572382 0.40346316 0.62447804 0.3140634 -0.055426065 -0.5539715 0.5122548 -0.1931212 -0.0017042691 0.31595793 -0.27815107 0.28386453 -0.7306519 0.20622262 -0.05572867 0.4368795
65 -0.002323714 -0.6105656 0.06149385 -0.59453315 1.2855759 -0.5179661 -0.27317688 0.100024454 0.41461107 -0.17343695 0.6840818 0.0061520548 -0.2612404 0.21706097 0.017975146 0.14831442 0.0529494 -0.90743095 -0.1458201 0.124775104 0.3560369 0.30863073 -0.20040235 0.10320473 0.10391414 0.7119162 0.8453932 0.5157681 -0.02211619 0.443486 0.050525676 0.58806944 -0.24644926 0.8058676 0.00878455 -0.043059357 0.45755357 -0.3910097 -0.32263637 -0.46948293 -0.13717312 0.63115925 0.47211912 0.08771645 -0.21938772 -1.7646302 0.5864071 -0.08411788 0.5453028 -0.4034972 0.16115712 -0.36674896 1.3206844 -0.01903401 -0.0785845 0.032672554 -0.36889815 0.41020787 -0.36425415 -0.41041687 -0.6052116 0.073875226 0.14633551 0.7220906
2080 0.25509384 -0.28207982 0.39300203 -0.29032555 0.23825932 -0.3443043 -0.5020885 0.0051802644 0.11641241 0.57559365 0.7273323 -0.16923091 -0.08637006 -0.5257987 -0.23128022 0.74125284 -0.08502381 0.12372632 0.1445199 0.058600314 0.3514317 0.52512777 0.13972566 -0.31118384 0.0036009664 1.0735039 -0.37608126 0.79168284 0.027466917 -0.9206998 -0.44782215 1.0041603 0.21741316 0.4589808 -1.1146883 0.0022785 -0.58803976 0.38904998 0.07539671 -0.100507006 -0.01894746 -0.12247397 0.35995188 1.0196023 0.5130688 -0.27722675 0.22630407 -0.1176837 -0.5297315 0.57239056 0.14825025 0.08923698 -0.443406 -0.45167568 0.8147887 -0.59561837 0.24275291 0.040390186 0.2606574 -0.19124578 -0.5783793 0.25270256 -0.42282802 0.5954863
2291 0.50770444 -0.010685779 -0.6349695 -0.67590076 -0.48189163 0.7352719 -0.5389467 0.6455629 -0.11055023 -0.44674808 -0.44839182 -0.3970238 -0.85492766 -0.30530688 -0.28951147 -0.17561685 -0.5959166 -0.29428697 -0.19004436 0.46004733 0.960077 -0.5073012 0.7040834 -0.8131281 0.115360074 0.2501429 0.36758366 -0.08678265 -0.2660851 -0.457984 -0.21233146 -0.24821833 -0.8570314 0.23217483 0.2405343 -0.24877508 0.6846494 -0.13628498 0.42981142 0.069579475 -0.0998208 -0.13625027 -0.027431844 0.1864978 0.77873594 -1.2906255 0.12968688 0.18481894 -0.8657933 -0.7052803 0.7960722 0.19162571 0.87853056 -0.07980115 -0.174827 -0.1704888 -0.29733223 -0.47507435 -0.009057774 -0.7973882 -0.32488865 0.09118631 0.42461213 0.7610796
2681 -0.26160744 0.7180011 0.015032717 -0.26761734 -0.7201547 0.32624456 -0.50652575 0.8708736 -0.42182332 1.0887512 -0.8875453 -1.5598525 -2.5009692 -0.6161805 -0.54987025 -0.47510627 -0.22277208 -0.3589367 -0.9923717 1.103389 -0.184481 -0.016800692 0.3337952 -0.33518973 -1.0079881 -0.1973367 1.0760589 -0.2843727 -1.610117 -1.5380983 -1.7646534 0.5558447 -0.5554083 0.48536888 -0.7793241 -1.2792299 0.95501125 0.55320567 0.18335427 -0.68725663 -0.3198785 -0.31395006 1.4274371 -0.6878797 -0.8121933 -0.26143232 1.407486 0.25890234 -1.6390573 -0.34861982 0.97938544 0.34182876 0.384586 0.49304888 -0.5017959 0.12480399 -0.6790269 1.6272871 -0.28276628 -1.2977153 -1.1974465 0.407933 0.38713738 1.1737638
2199 -0.70065457 0.16818759 0.38341844 -0.9183552 0.1513339 -0.87004095 0.27309728 0.112777665 0.08404954 0.015319352 -0.10848709 0.0017968559 -0.74610716 -0.8396496 0.35419813 -0.7842434 0.6000376 -0.25065958 -0.27795002 0.5445089 0.3411902 0.7105215 0.65884453 -0.5115412 -0.20755112 0.14969312 -0.71644264 0.3858494 0.13743764 -0.4228345 -0.41896096 -0.07445148 -0.42899734 0.6371331 0.39725906 0.28309333 0.45267165 0.31025895 -0.0797381 -0.1740302 0.5413245 0.8322362 0.70644206 0.22622626 0.20829232 -0.31304786 -1.1725221 0.6112274 -0.47514078 -0.70743906 -0.63526124 0.3513774 0.20853013 0.9683608 0.29749238 0.5407218 0.5758026 -0.11920893 0.74059093 -0.11237037 -0.89522046 -0.53692424 -0.9047241 0.24329104
482 -0.062127355 -0.3472375 -0.72396016 -0.4813767 -0.066749945 -0.1787547 -0.26703963 -0.30331707 -0.33812734 0.1993578 -0.0022641923 0.2872029 -0.4787904 0.2316061 -0.08831014 0.050389793 -0.2870912 0.79101056 0.34531635 0.4973595 0.81709945 0.053976055 0.40766397 -0.5781074 0.5942608 0.55311835 -0.54694384 0.44338918 -0.9119842 -0.3269363 0.36911032 0.08311794 -0.83451205 -0.029069498 0.033524003 0.2019086 0.11007466 0.27777684 0.7841407 0.6437538 -0.36721647 0.41604912 0.074602775 -0.65445435 -0.31775495 0.28125852 -0.45410582 -0.032236647 -0.4090699 -0.32793528 0.5556852 0.6623166 0.35366398 0.23701924 0.76656973 0.18187152 0.41993618 -0.13126299 0.17054312 -0.4267937 -0.7598613 0.07921943 0.9969856 -0.3016646
1022 1.2297423 -0.6823395 0.4962708 0.32032 0.40984255 -0.21894261 0.5263201 0.24439158 -0.35482585 -0.18534276 -0.65366495 -0.17311692 -0.73312837 0.63648915 -0.36241242 0.52671164 0.17296302 0.2341806 0.2338317 0.44649944 0.26232958 1.4544666 0.12152616 -0.80481714 0.09519572 -0.23755826 0.035480086 -0.17276357 1.023603 -1.0261515 -0.8317567 1.5068746 -0.8375618 0.19267023 -0.3651943 -0.16210479 -0.52396137 -0.34381545 0.24664731 -0.510712 -0.912908 0.045813724 0.77663976 -1.0804023 1.2230732 -0.3897249 1.257179 -0.2115341 -1.0113819 -0.53456557 -0.9738831 -0.8679201 -0.14713718 0.49407175 0.4784756 -0.96809006 0.37543046 0.95085925 0.5128181 0.069067016 -1.4845256 0.12725908 -0.5349954 -0.102903605
1682 0.8333045 -0.43317562 -0.6404595 -0.83110094 -1.2008178 0.21824972 -0.7254892 -0.36329365 0.24973728 -0.5738909 -0.3866578 0.4562716 -0.75441813 -0.45007715 -0.108015075 -0.19296253 -0.46101165 -0.6311289 -0.2518945 1.027549 0.9167509 -0.24299972 0.67370933 -0.38893956 0.18060076 -0.37764362 0.3567633 0.4056094 -0.5614738 -0.22266409 -0.561191 0.0838201 -0.4915465 0.18117484 -0.022953408 0.33402598 -0.53057474 -0.24171612 0.3600948 -0.26896256 -0.070365764 -0.36503696 -0.0053480654 0.76870215 0.78184307 -1.0113704 0.090350114 0.21350677 -0.95205635 0.038333043 0.42397654 0.19779335 0.6251612 0.052690145 -0.25465876 -0.027767584 -0.27432016 0.01779298 0.013759291 -0.71254313 -0.4925141 -0.028531509 -0.25442272 0.7058243
89 0.5083678 -0.32537335 -1.0793141 -0.81973106 -0.09930453 -0.37524328 0.19075169 -1.410701 -0.54192173 0.40171877 0.33334348 -0.9601275 -0.014981533 -0.69997865 0.32061484 0.52332264 -0.3116816 -0.36029363 -0.19512011 -0.11073432 -0.103103 0.6064039 0.595739 0.063305825 -1.0237842 0.7027425 1.129658 1.3259739 0.6814071 0.4305903 -0.69427353 0.16198465 -1.2034885 0.20854081 0.021207402 0.18494135 0.65518993 -1.1389248 0.3752255 -0.12932524 -0.4707157 -0.4015999 0.9834404 0.29027444 1.3308694 0.53716457 0.8419442 0.39724857 -0.75634485 0.35136133 0.25288466 1.033924 0.33508977 0.13987598 0.35025337 0.28512996 -0.7655858 -0.4460272 1.1195955 0.22205375 -1.2302471 -0.30298486 0.15388565 -1.6583288
316 -0.37625578 -0.56783867 -0.37077355 -0.104553804 0.3649143 -0.59347236 -0.4132835 -0.37519252 -0.03925683 0.20243187 0.30216783 -0.20852321 -1.137578 -0.36436886 -0.25426316 0.35751206 -0.047405686 0.2188944 0.20234415 0.5391018 0.45288083 0.24673675 0.458947 0.11856749 0.6847549 0.13278656 0.48387766 0.8822378 -0.6369946 -0.98927116 0.78762895 -0.118765175 0.6133876 -0.5044249 0.23490901 0.010594375 0.16018091 0.5344779 -0.0983576 0.11614286 -0.2814879 0.4123314 -0.26291707 -0.47846678 0.40054044 0.70005894 0.7699666 -0.28933984 0.24176651 0.2666411 0.0076800347 0.41456974 0.60257405 0.23065645 1.1418569 0.050300315 -0.30440807 0.3159116 -0.21918954 -0.62979466 -0.7418372 -0.1410234 -0.2560278 -0.28309038
867 0.6884626 -0.50392276 -0.587927 -0.30340427 -0.2349578 -1.0494868 0.61829513 0.08004025 -0.09185443 -0.18600355 0.5037468 0.6182044 -0.2907377 -0.9881961 -0.029036444 1.2605339 0.28725561 -0.31692272 1.0294893 -0.09588758 0.060234394 0.41254193 0.0028799598 0.89088047 -0.8585238 -0.47324437 0.08184524 0.49757007 0.66316646 -1.773113 -0.3844729 0.59587824 -0.05093773 -0.70154166 -0.7711637 0.24550238 0.24523175 0.027559241 0.10616671 0.1883792 0.07136483 -0.1981734 0.7186108 0.1757455 -0.22064695 -1.20021 -0.60373133 0.3504123 -0.6095275 -0.08333332 1.2306273 -0.39293838 0.7022959 0.43533063 0.268317 -0.4711856 -0.10644731 0.38558745 -0.25421318 0.11720284 -0.72000074 -1.3141849 0.64992976 -0.19639592
1464 -0.019266734 -0.76032805 0.21176678 -0.5162434 -0.17572966 -0.90257204 -0.18019846 -0.23268712 -0.2620644 0.54075116 0.16934298 -0.9002099 -0.27516264 0.3937522 0.27827188 -0.0872458 0.8461686 -0.6206496 0.5190532 -0.014580624 0.7009199 0.6175475 0.89918596 0.45250362 -0.061923087 0.27635175 0.71747655 -0.20404163 0.11136879 -0.7197528 -0.8178613 0.24684471 0.0633091 -0.21600875 0.0849276 0.30339012 -0.41283518 -0.437829 -0.7599298 0.71477324 0.035967853 1.2110673 -0.119882755 0.21055453 0.4229714 -1.6574186 0.8471808 -0.3425167 0.24027726 0.2798455 -0.9119679 0.035197094 1.0744169 -0.21863541 -0.80279726 0.22584686 -0.36263528 -0.21839218 0.68953973 0.17461035 -0.22412662 -0.009305486 0.057597037 -0.14648117
236 0.3128121 0.31467518 0.33062938 -0.07865651 -0.27831763 -0.63843143 -0.2895931 -0.3211977 0.186549 0.46204412 0.2542368 -0.09552552 0.28906262 -0.3699853 -0.17122789 -0.07935246 -0.0822667 0.27741894 -0.091703236 -0.14192998 0.10793086 0.07381712 0.37483653 -0.94999224 0.34853876 0.4064655 0.37725446 1.0534208 -0.2675692 -0.71776605 -0.6309508 0.9386496 0.5522706 0.1281924 -0.14462721 0.25399196 -0.086250395 0.067743234 -0.07653265 -0.7099409 0.19127518 0.38152274 -0.17455763 0.81472033 0.40304798 -0.42109513 -0.08161875 -0.42534822 -0.28053173 0.2575909 0.04606695 0.04472537 -0.25846994 -0.12367868 0.4275207 -0.19121371 0.22541969 0.22984633 -0.56139475 -0.33209497 -0.7596694 -0.37445584 0.31411782 0.10065067
59 0.40296814 -0.084643796 -0.22574931 -0.28450996 -0.5553599 -0.021706333 -0.16348238 0.011786963 -0.6846283 0.47615573 -0.680014 -0.14463295 -0.8920811 -0.14422792 0.0008701929 0.41362068 0.45528072 -0.1785452 0.3269616 0.35289267 0.48991528 0.019991219 -0.2046357 0.015182401 0.035363626 0.07026231 0.4673569 0.94652456 -0.22876552 -0.2725415 0.291325 -0.20661454 0.7644455 -0.25879577 -0.0055900654 -0.3369232 0.9772135 -0.46391162 -0.25305927 0.40118226 -0.021047123 0.08575026 0.15070647 0.65025073 -0.33789265 -0.5969463 -0.7356685 0.010590282 -0.15864463 -0.11198596 0.054681085 0.72939605 0.50392866 0.52313524 0.2969571 -0.43502128 0.25903907 0.5350328 -0.23715125 0.44711924 -0.59121734 -0.47385377 0.34926397 0.10321707
1842 -0.21600302 -0.92038256 -0.28483784 0.033525083 0.17961112 -0.7521319 -0.30886722 -0.53345174 0.35029596 0.44955543 0.6555951 -0.46627665 -0.29807863 -0.116061896 -0.25858322 -0.37151265 -0.08888721 -0.039683595 -0.17539525 -0.3879101 0.6314363 0.010733409 -0.3073211 -0.14825942 0.08887564 0.28926322 0.05376096 0.24267039 -0.26645455 0.08358321 -0.7780402 0.75253415 0.033714727 -0.5039234 0.62472534 0.43192178 0.29179433 -0.48377797 -0.17759944 -0.96153516 -0.26736212 0.2667591 0.43256322 -0.6734749 0.31670544 -0.90782696 -0.28101563 -0.860297 -0.29245323 -0.74521965 0.35870913 0.23659958 0.3411274 -0.5606365 -0.43278143 0.4668712 0.23227105 -0.40033877 0.8065819 0.4897537 -0.87618124 -0.35878292 0.24576098 -0.29198107
711 0.11106701 0.53152114 -0.39096025 -0.42487082 0.0152442735 -1.691644 -0.32668728 0.6838704 0.25972983 -0.35166466 -0.30161604 -0.22151898 -0.4989681 -0.21851243 -0.19283614 0.53913414 0.48187962 0.4326587 -0.51464957 -0.27068892 0.819566 0.7877096 0.20806491 -0.38872904 -0.021129912 0.67736953 0.16334271 -0.8608989 -0.5233327 -0.11056703 0.47413507 -0.2529932 -0.9833373 0.30605084 -0.552617 -0.6847316 -0.6366241 -0.17257918 -0.04122034 -0.32730463 -0.5744017 0.10050827 -0.00033409917 0.62443256 0.081188776 -0.17640716 -0.33724746 -0.8000604 -0.40984684 0.8991234 -0.4664324 0.13700362 0.8281617 -0.46437892 -1.1043594 -0.21497643 -0.08932612 -0.38671958 0.26335987 0.11140266 -0.31914988 -0.37872937 0.40131125 -0.3711983
1739 -0.17751756 0.04659661 -0.38012257 -0.5528082 -0.12517321 0.09355945 0.48640823 0.095227204 -0.09315316 0.060597535 0.09266474 -0.4787229 -0.3025027 0.3030747 -0.16501579 0.236262 0.071870476 0.07166977 -0.066325344 -0.080417246 0.72368455 -0.5499091 -0.4379004 0.15240125 -0.47839257 -0.6691338 0.31219345 0.39970097 -0.032414015 -0.9269378 0.67567223 0.6292318 -0.1253287 -0.43185347 -0.315682 -0.75831115 0.48285058 -0.14782552 0.22277837 -0.7086676 -0.44389004 0.23407307 -0.31006342 0.90735996 -0.46190172 -0.8235136 -0.4592156 0.017950958 -0.10592964 0.15379116 -0.14756384 0.30916682 0.57408863 0.91116685 0.76994133 -0.8718999 0.44237116 -0.38699496 0.3883458 0.33540967 -0.18840615 -0.4626162 0.25865853 -0.38223648
